{"ip":0,"fr":60,"v":"5.1.20","assets":[{"id":"precomp_1","layers":[]},{"id":"precomp_2","layers":[{"ty":4,"nm":"Group 12","ip":0,"st":0,"ind":6,"hix":1,"ks":{"o":{"a":0,"k":100},"or":{"a":0,"k":[0,0,0]},"a":{"a":0,"k":[699.5,64.5,0]},"p":{"s":true,"x":{"a":0,"k":699.5},"y":{"a":0,"k":97}},"rx":{"a":0,"k":0},"ry":{"a":0,"k":0},"rz":{"a":0,"k":0},"s":{"a":0,"k":[100,100,100]}},"shapes":[{"ty":"gr","nm":"Group 12 shape group","it":[{"ty":"sh","ks":{"a":0,"k":{"c":true,"v":[[0,128.022],[0,120.43],[1399,120.43],[1399,128.022]],"i":[[0,0],[0,0],[0,0],[0,0]],"o":[[0,0],[0,0],[0,0],[0,0]]}}},{"ty":"sh","ks":{"a":0,"k":{"c":true,"v":[[1399,76.5047],[1399,63.6149],[0,63.6149],[0,76.5047]],"i":[[0,0],[0,0],[0,0],[0,0]],"o":[[0,0],[0,0],[0,0],[0,0]]}}},{"ty":"sh","ks":{"a":0,"k":{"c":true,"v":[[1399,50.7667],[1399,45.469],[0,45.469],[0,50.7667]],"i":[[0,0],[0,0],[0,0],[0,0]],"o":[[0,0],[0,0],[0,0],[0,0]]}}},{"ty":"sh","ks":{"a":0,"k":{"c":true,"v":[[1399,31.0774],[1399,28.0323],[0,28.0323],[0,31.0774]],"i":[[0,0],[0,0],[0,0],[0,0]],"o":[[0,0],[0,0],[0,0],[0,0]]}}},{"ty":"sh","ks":{"a":0,"k":{"c":true,"v":[[1399,104.537],[1399,98.4883],[0,98.4883],[0,104.537]],"i":[[0,0],[0,0],[0,0],[0,0]],"o":[[0,0],[0,0],[0,0],[0,0]]}}},{"ty":"sh","ks":{"a":0,"k":{"c":true,"v":[[0,5.29778],[1399,5.29778],[1399,0],[0,0]],"i":[[0,0],[0,0],[0,0],[0,0]],"o":[[0,0],[0,0],[0,0],[0,0]]}}},{"ty":"st","o":{"a":0,"k":0},"w":{"a":0,"k":0},"c":{"a":0,"k":[0,0,0,0]},"lc":3,"lj":1,"ml":1},{"ty":"gf","o":{"a":0,"k":100},"r":1,"g":{"p":2,"k":{"a":0,"k":[0.4578,0.9176470588235294,0.7686274509803922,0.7215686274509804,1,0.9215686274509803,0.8196078431372549,0.7764705882352941]}},"t":1,"s":{"a":0,"k":[0.00916776,64.0153]},"e":{"a":0,"k":[1399,64.0153]}},{"ty":"tr","o":{"a":0,"k":80},"a":{"a":0,"k":[0,0]},"s":{"a":0,"k":[100,100]},"p":{"a":0,"k":[0,0]},"r":{"a":0,"k":0}}]}],"op":3600}]},{"id":"precomp_3","layers":[{"ty":4,"nm":"XMLID 154","ip":0,"st":0,"ind":10,"hix":1,"ks":{"o":{"a":1,"k":[{"t":0,"s":[0],"e":[100],"i":{"x":[0.515],"y":[0.955]},"o":{"x":[0.455],"y":[0.03]}},{"t":15,"s":[100],"e":[0],"i":{"x":[0.515],"y":[0.955]},"o":{"x":[0.455],"y":[0.03]}},{"t":30}]},"or":{"a":0,"k":[0,0,0]},"a":{"a":0,"k":[441,39,0]},"p":{"s":true,"x":{"a":0,"k":441},"y":{"a":0,"k":39}},"rx":{"a":0,"k":0},"ry":{"a":0,"k":0},"rz":{"a":0,"k":0},"s":{"a":0,"k":[100,100,100]}},"shapes":[{"ty":"gr","nm":"XMLID 154 shape group","it":[{"ty":"sh","ks":{"a":0,"k":{"c":true,"v":[[802.925,65.3792],[806.304,65.254],[815.27,65.0453],[827.949,64.8365],[842.463,64.753],[849.845,64.7948],[856.976,64.8365],[869.655,65.0453],[878.622,65.254],[882,65.3792],[878.622,65.5045],[869.655,65.7132],[856.976,65.9219],[849.845,65.9637],[842.463,66.0054],[827.949,65.9219],[815.27,65.7132],[806.304,65.5045]],"i":[[0,0],[-2.1269999999999527,0.08339999999999748],[-3.7110000000000127,0.041700000000005844],[-4.628999999999905,0.04179999999999495],[-4.921999999999912,0.04179999999999495],[-2.4189999999999827,-0.04179999999999495],[-2.2930000000000064,0],[-3.711999999999989,-0.0835000000000008],[-2.1689999999999827,-0.04180000000000916],[0,0],[2.1270000000000664,-0.08349999999998658],[3.711999999999989,-0.04179999999999495],[4.6299999999999955,-0.04179999999999495],[2.4189999999999827,0],[2.4600000000000364,-0.04169999999999163],[4.629000000000019,0.041700000000005844],[3.711999999999989,0.08339999999999748],[2.1680000000000064,0.041700000000005844]],"o":[[0,0],[2.1680000000000064,-0.04180000000000916],[3.711999999999989,-0.04179999999999495],[4.629000000000019,-0.041700000000005844],[2.4600000000000364,0],[2.4189999999999827,0],[4.6299999999999955,0.04179999999999495],[3.711999999999989,0.041700000000005844],[2.1690000000000964,0.08339999999999748],[0,0],[-2.1689999999999827,0.041700000000005844],[-3.711999999999989,0.041700000000005844],[-2.3350000000000364,0],[-2.4189999999999827,0],[-4.962999999999965,0],[-4.628999999999905,-0.04179999999999495],[-3.7110000000000127,-0.04179999999999495],[-2.1269999999999527,-0.08349999999998658]]}}},{"ty":"st","o":{"a":0,"k":0},"w":{"a":0,"k":0},"c":{"a":0,"k":[0,0,0,0]},"lc":3,"lj":1,"ml":1},{"ty":"fl","o":{"a":0,"k":100},"r":1,"c":{"a":0,"k":[1,1,1,1]}},{"ty":"tr","o":{"a":0,"k":100},"a":{"a":0,"k":[0,0]},"s":{"a":0,"k":[100,100]},"p":{"a":0,"k":[0,0]},"r":{"a":0,"k":0}}]},{"ty":"gr","nm":"XMLID 154 shape group","it":[{"ty":"sh","ks":{"a":0,"k":{"c":true,"v":[[657.746,77.3189],[665.045,77.1937],[684.313,76.985],[711.547,76.7763],[742.785,76.6928],[774.023,76.7763],[801.257,76.985],[820.525,77.1937],[827.824,77.3189],[820.525,77.4442],[801.257,77.6529],[774.023,77.8617],[742.785,77.9452],[711.547,77.8617],[684.313,77.6529],[665.045,77.4442]],"i":[[0,0],[-4.6299999999999955,0.08349999999998658],[-7.966000000000008,0.0835000000000008],[-9.968000000000075,0.04169999999999163],[-10.634999999999991,0.04169999999999163],[-9.968000000000075,-0.041700000000005844],[-7.9659999999998945,-0.0835000000000008],[-4.629000000000019,-0.041700000000005844],[0,0],[4.6299999999999955,-0.0835000000000008],[7.966000000000008,-0.041700000000005844],[9.967999999999961,-0.04179999999999495],[10.634999999999991,-0.04179999999999495],[9.967999999999961,0.041700000000005844],[7.966000000000008,0.0835000000000008],[4.629000000000019,0.04180000000000916]],"o":[[0,0],[4.671000000000049,-0.041700000000005844],[7.966000000000008,-0.041700000000005844],[9.967999999999961,-0.041700000000005844],[10.634999999999991,0.04169999999999163],[9.967999999999961,0],[7.966000000000008,0.04179999999999495],[4.671000000000049,0.08349999999998658],[0,0],[-4.670999999999935,0.04180000000000916],[-7.9659999999998945,0.04179999999999495],[-9.968000000000075,0.041700000000005844],[-10.634999999999991,-0.04179999999999495],[-9.968000000000075,-0.04179999999999495],[-7.966000000000008,-0.0835000000000008],[-4.670999999999935,-0.0835000000000008]]}}},{"ty":"st","o":{"a":0,"k":0},"w":{"a":0,"k":0},"c":{"a":0,"k":[0,0,0,0]},"lc":3,"lj":1,"ml":1},{"ty":"fl","o":{"a":0,"k":100},"r":1,"c":{"a":0,"k":[1,1,1,1]}},{"ty":"tr","o":{"a":0,"k":100},"a":{"a":0,"k":[0,0]},"s":{"a":0,"k":[100,100]},"p":{"a":0,"k":[0,0]},"r":{"a":0,"k":0}}]},{"ty":"gr","nm":"XMLID 154 shape group","it":[{"ty":"sh","ks":{"a":0,"k":{"c":true,"v":[[207.321,47.2596],[211.199,46.8839],[215.203,46.6752],[219.791,46.5917],[222.126,46.6334],[224.379,46.6752],[228.382,46.8839],[232.261,47.2596],[228.382,47.6354],[224.379,47.8441],[222.126,47.8859],[219.791,47.9276],[215.203,47.8441],[211.199,47.6354]],"i":[[0,0],[-2.335000000000008,0.1670000000000016],[-1.4590000000000032,0.041700000000005844],[-1.585000000000008,0.04169999999999874],[-0.7920000000000016,-0.04169999999999874],[-0.7090000000000032,0],[-1.1670000000000016,-0.08349999999999369],[0,0],[2.3359999999999843,-0.1669999999999945],[1.4590000000000032,-0.04179999999999495],[0.7510000000000048,0],[0.7920000000000016,-0.04179999999999495],[1.460000000000008,0.041700000000005844],[1.167999999999978,0.0835000000000008]],"o":[[0,0],[1.167999999999978,-0.08349999999999369],[1.460000000000008,-0.04179999999999495],[0.7920000000000016,0],[0.7510000000000048,0],[1.4590000000000032,0.041700000000005844],[2.3359999999999843,0.1670000000000016],[0,0],[-1.1670000000000016,0.0835000000000008],[-0.7510000000000048,0],[-0.75,0],[-1.5430000000000064,0],[-1.4590000000000032,-0.04179999999999495],[-2.335000000000008,-0.1669999999999945]]}}},{"ty":"st","o":{"a":0,"k":0},"w":{"a":0,"k":0},"c":{"a":0,"k":[0,0,0,0]},"lc":3,"lj":1,"ml":1},{"ty":"fl","o":{"a":0,"k":100},"r":1,"c":{"a":0,"k":[1,1,1,1]}},{"ty":"tr","o":{"a":0,"k":100},"a":{"a":0,"k":[0,0]},"s":{"a":0,"k":[100,100]},"p":{"a":0,"k":[0,0]},"r":{"a":0,"k":0}}]},{"ty":"gr","nm":"XMLID 154 shape group","it":[{"ty":"sh","ks":{"a":0,"k":{"c":true,"v":[[383.612,59.9516],[385.823,59.8263],[391.578,59.5757],[399.753,59.367],[409.095,59.2835],[413.849,59.3252],[418.437,59.367],[426.611,59.5757],[432.367,59.8263],[434.577,59.9516],[432.367,60.0768],[426.611,60.3273],[418.437,60.5361],[413.849,60.5778],[409.095,60.6196],[399.753,60.5361],[391.578,60.3273],[385.823,60.0768]],"i":[[0,0],[-1.4180000000000064,0.08349999999999369],[-2.3769999999999527,0.0835000000000008],[-3.002999999999986,0.04180000000000206],[-3.170000000000016,0.041700000000005844],[-1.5849999999999795,-0.041700000000005844],[-1.4600000000000364,0],[-2.4189999999999827,-0.0835000000000008],[-1.3770000000000095,-0.0835000000000008],[0,0],[1.4180000000000064,-0.0835000000000008],[2.3770000000000095,-0.0835000000000008],[3.002999999999986,-0.04179999999999495],[1.5430000000000064,0],[1.5849999999999795,-0.04179999999999495],[2.9610000000000127,0.041700000000005844],[2.4190000000000396,0.0835000000000008],[1.3760000000000332,0.0835000000000008]],"o":[[0,0],[1.3760000000000332,-0.04180000000000206],[2.3770000000000095,-0.0835000000000008],[3.0020000000000095,-0.04169999999999874],[1.5849999999999795,0],[1.5850000000000364,0],[3.002999999999986,0.04180000000000206],[2.3770000000000095,0.0835000000000008],[1.3759999999999764,0.08349999999999369],[0,0],[-1.3770000000000095,0.04180000000000206],[-2.3770000000000095,0.0835000000000008],[-1.5020000000000095,0],[-1.5849999999999795,0],[-3.170000000000016,0],[-3.002999999999986,-0.04179999999999495],[-2.3769999999999527,-0.0835000000000008],[-1.4180000000000064,-0.0835000000000008]]}}},{"ty":"st","o":{"a":0,"k":0},"w":{"a":0,"k":0},"c":{"a":0,"k":[0,0,0,0]},"lc":3,"lj":1,"ml":1},{"ty":"fl","o":{"a":0,"k":100},"r":1,"c":{"a":0,"k":[1,1,1,1]}},{"ty":"tr","o":{"a":0,"k":100},"a":{"a":0,"k":[0,0]},"s":{"a":0,"k":[100,100]},"p":{"a":0,"k":[0,0]},"r":{"a":0,"k":0}}]},{"ty":"gr","nm":"XMLID 154 shape group","it":[{"ty":"sh","ks":{"a":0,"k":{"c":true,"v":[[390.076,43.6697],[391.911,43.5444],[396.707,43.2939],[403.464,43.0852],[411.221,43.0017],[415.183,43.0435],[419.02,43.0852],[425.776,43.2939],[430.573,43.5444],[432.408,43.6697],[430.573,43.7949],[425.776,44.0454],[419.02,44.2541],[415.183,44.2959],[411.221,44.3376],[403.464,44.2541],[396.707,44.0454],[391.911,43.7949]],"i":[[0,0],[-1.1680000000000064,0.08349999999999369],[-2.0020000000000095,0.0835000000000008],[-2.4610000000000127,0.04169999999999874],[-2.6270000000000095,0.04180000000000206],[-1.3349999999999795,-0.04180000000000206],[-1.2509999999999764,0],[-1.9600000000000364,-0.08339999999999748],[-1.1680000000000064,-0.0835000000000008],[0,0],[1.16700000000003,-0.0835000000000008],[2.0020000000000095,-0.0835000000000008],[2.4610000000000127,-0.04169999999999874],[1.3349999999999795,0],[1.3349999999999795,-0.04169999999999874],[2.4599999999999795,0.04180000000000206],[1.9610000000000127,0.0835000000000008],[1.1680000000000064,0.0835000000000008]],"o":[[0,0],[1.1680000000000064,-0.041700000000005844],[2.0020000000000095,-0.08339999999999748],[2.4599999999999795,-0.04180000000000206],[1.3349999999999795,0],[1.2930000000000064,0],[2.4610000000000127,0.04169999999999874],[2.0020000000000095,0.0835000000000008],[1.16700000000003,0.08349999999999369],[0,0],[-1.1680000000000064,0.04169999999999874],[-2.001000000000033,0.0835000000000008],[-1.2509999999999764,0],[-1.2930000000000064,0],[-2.6270000000000095,0],[-2.4610000000000127,-0.04169999999999874],[-2.0020000000000095,-0.0835000000000008],[-1.1680000000000064,-0.04179999999999495]]}}},{"ty":"st","o":{"a":0,"k":0},"w":{"a":0,"k":0},"c":{"a":0,"k":[0,0,0,0]},"lc":3,"lj":1,"ml":1},{"ty":"fl","o":{"a":0,"k":100},"r":1,"c":{"a":0,"k":[1,1,1,1]}},{"ty":"tr","o":{"a":0,"k":100},"a":{"a":0,"k":[0,0]},"s":{"a":0,"k":[100,100]},"p":{"a":0,"k":[0,0]},"r":{"a":0,"k":0}}]},{"ty":"gr","nm":"XMLID 154 shape group","it":[{"ty":"sh","ks":{"a":0,"k":{"c":true,"v":[[598.148,54.524],[599.566,54.3987],[603.236,54.1483],[608.45,53.9395],[614.414,53.856],[617.458,53.8978],[620.378,53.9395],[625.591,54.1483],[629.261,54.3987],[630.679,54.524],[629.261,54.6492],[625.591,54.8997],[620.378,55.1085],[617.458,55.1502],[614.414,55.192],[608.45,55.1085],[603.236,54.8997],[599.566,54.6492]],"i":[[0,0],[-0.91700000000003,0.0835000000000008],[-1.5009999999999764,0.0835000000000008],[-1.9190000000000964,0.04169999999999874],[-2.0439999999999827,0.04169999999999874],[-1.0009999999999764,-0.04179999999999495],[-0.9180000000000064,0],[-1.5430000000000064,-0.0835000000000008],[-0.8759999999999764,-0.0835000000000008],[0,0],[0.91700000000003,-0.0835000000000008],[1.5009999999999764,-0.0835000000000008],[1.9180000000000064,-0.04180000000000206],[1.0009999999999764,0],[1.04200000000003,-0.04180000000000206],[1.9180000000000064,0.04169999999999874],[1.5430000000000064,0.08349999999999369],[0.8759999999999764,0.0835000000000008]],"o":[[0,0],[0.8759999999999764,-0.04169999999999874],[1.5430000000000064,-0.0835000000000008],[1.9180000000000064,-0.04180000000000206],[1,0],[1.0009999999999764,0],[1.9180000000000064,0.04169999999999874],[1.5430000000000064,0.0835000000000008],[0.8759999999999764,0.0835000000000008],[0,0],[-0.8759999999999764,0.04180000000000206],[-1.5430000000000064,0.08349999999999369],[-0.9600000000000364,0],[-1.0009999999999764,0],[-2.0439999999999827,0],[-1.9190000000000964,-0.04180000000000206],[-1.5430000000000064,-0.0835000000000008],[-0.91700000000003,-0.0835000000000008]]}}},{"ty":"st","o":{"a":0,"k":0},"w":{"a":0,"k":0},"c":{"a":0,"k":[0,0,0,0]},"lc":3,"lj":1,"ml":1},{"ty":"fl","o":{"a":0,"k":100},"r":1,"c":{"a":0,"k":[1,1,1,1]}},{"ty":"tr","o":{"a":0,"k":100},"a":{"a":0,"k":[0,0]},"s":{"a":0,"k":[100,100]},"p":{"a":0,"k":[0,0]},"r":{"a":0,"k":0}}]},{"ty":"gr","nm":"XMLID 154 shape group","it":[{"ty":"sh","ks":{"a":0,"k":{"c":true,"v":[[511.441,42.5841],[516.863,42.4589],[531.085,42.2501],[551.229,42.0414],[574.292,41.9579],[597.356,42.0414],[617.5,42.2501],[631.721,42.4589],[637.143,42.5841],[631.721,42.7094],[617.5,42.9181],[597.356,43.1269],[574.292,43.2103],[551.229,43.1269],[531.085,42.9181],[516.863,42.7094]],"i":[[0,0],[-3.4620000000001028,0.0835000000000008],[-5.8810000000000855,0.04179999999999495],[-7.382000000000062,0.04169999999999874],[-7.841000000000008,0.04179999999999495],[-7.341000000000008,-0.04180000000000206],[-5.923000000000002,-0.0835000000000008],[-3.4189999999999827,-0.04180000000000206],[0,0],[3.461999999999989,-0.0835000000000008],[5.8799999999999955,-0.041700000000005844],[7.382000000000062,-0.04180000000000206],[7.841000000000008,-0.04169999999999874],[7.339999999999918,0.04169999999999874],[5.921999999999912,0.0835000000000008],[3.419999999999959,0.04169999999999874]],"o":[[0,0],[3.419999999999959,-0.04180000000000206],[5.8799999999999955,-0.041700000000005844],[7.381999999999948,-0.04180000000000206],[7.841000000000008,0.04179999999999495],[7.382000000000062,0],[5.8799999999999955,0.04179999999999495],[3.419999999999959,0.0835000000000008],[0,0],[-3.4189999999999827,0.04169999999999874],[-5.880999999999972,0.04179999999999495],[-7.381999999999948,0.04169999999999874],[-7.841000000000008,-0.04169999999999874],[-7.382000000000062,-0.04180000000000206],[-5.8810000000000855,-0.041700000000005844],[-3.4620000000001028,-0.0835000000000008]]}}},{"ty":"st","o":{"a":0,"k":0},"w":{"a":0,"k":0},"c":{"a":0,"k":[0,0,0,0]},"lc":3,"lj":1,"ml":1},{"ty":"fl","o":{"a":0,"k":100},"r":1,"c":{"a":0,"k":[1,1,1,1]}},{"ty":"tr","o":{"a":0,"k":100},"a":{"a":0,"k":[0,0]},"s":{"a":0,"k":[100,100]},"p":{"a":0,"k":[0,0]},"r":{"a":0,"k":0}}]},{"ty":"gr","nm":"XMLID 154 shape group","it":[{"ty":"sh","ks":{"a":0,"k":{"c":true,"v":[[686.982,3.54841],[692.946,3.42316],[708.669,3.21439],[730.899,3.00569],[756.381,2.92217],[781.864,3.00569],[804.093,3.21439],[819.816,3.42316],[825.78,3.54841],[819.816,3.67366],[804.093,3.88243],[781.864,4.0912],[756.381,4.17472],[730.899,4.0912],[708.669,3.88243],[692.946,3.67366]],"i":[[0,0],[-3.7950000000000728,0.08350999999999997],[-6.505999999999972,0.04176000000000002],[-8.133000000000038,0.041749999999999954],[-8.674999999999955,0.041749999999999954],[-8.133000000000038,-0.041749999999999954],[-6.505999999999972,-0.08349999999999991],[-3.7950000000000728,-0.0417500000000004],[0,0],[3.794999999999959,-0.08349999999999991],[6.5060000000000855,-0.041749999999999954],[8.131999999999948,-0.04174999999999951],[8.675000000000068,-0.04174999999999951],[8.131999999999948,0.0417500000000004],[6.507000000000062,0.08350000000000035],[3.794999999999959,0.041749999999999954]],"o":[[0,0],[3.794999999999959,-0.0417500000000004],[6.507000000000062,-0.041749999999999954],[8.131999999999948,-0.041749999999999954],[8.675000000000068,0.041749999999999954],[8.131999999999948,0],[6.5060000000000855,0.04176000000000002],[3.794999999999959,0.08350999999999997],[0,0],[-3.7950000000000728,0.041749999999999954],[-6.505999999999972,0.041749999999999954],[-8.133000000000038,0.0417500000000004],[-8.674999999999955,-0.04174999999999951],[-8.133000000000038,-0.04174999999999951],[-6.505999999999972,-0.041749999999999954],[-3.7950000000000728,-0.08349999999999991]]}}},{"ty":"st","o":{"a":0,"k":0},"w":{"a":0,"k":0},"c":{"a":0,"k":[0,0,0,0]},"lc":3,"lj":1,"ml":1},{"ty":"fl","o":{"a":0,"k":100},"r":1,"c":{"a":0,"k":[1,1,1,1]}},{"ty":"tr","o":{"a":0,"k":100},"a":{"a":0,"k":[0,0]},"s":{"a":0,"k":[100,100]},"p":{"a":0,"k":[0,0]},"r":{"a":0,"k":0}}]},{"ty":"gr","nm":"XMLID 154 shape group","it":[{"ty":"sh","ks":{"a":0,"k":{"c":true,"v":[[480.37,4.63397],[485.292,4.25818],[490.338,4.04949],[496.094,3.96597],[499.013,4.0077],[501.849,4.04949],[506.895,4.25818],[511.817,4.63397],[506.895,5.0097],[501.849,5.21846],[499.013,5.26018],[496.094,5.30191],[490.338,5.21846],[485.292,5.0097]],"i":[[0,0],[-2.960999999999956,0.16699999999999982],[-1.8350000000000364,0.0417500000000004],[-1.9610000000000127,0.041749999999999954],[-0.9590000000000032,-0.041749999999999954],[-0.9180000000000064,0],[-1.5009999999999764,-0.08349999999999991],[0,0],[2.9610000000000127,-0.16699999999999982],[1.8350000000000364,-0.0417500000000004],[0.9590000000000032,0],[0.9590000000000032,-0.0417500000000004],[1.8349999999999795,0.04174999999999951],[1.5010000000000332,0.0835000000000008]],"o":[[0,0],[1.4590000000000032,-0.08349999999999991],[1.8349999999999795,-0.04174999999999951],[1,0],[0.9590000000000032,0],[1.8350000000000364,0.0417500000000004],[2.9610000000000127,0.16699999999999982],[0,0],[-1.4590000000000032,0.0835000000000008],[-0.9180000000000064,0],[-0.9590000000000032,0],[-1.9610000000000127,0],[-1.8350000000000364,-0.0417500000000004],[-2.919999999999959,-0.16699999999999982]]}}},{"ty":"st","o":{"a":0,"k":0},"w":{"a":0,"k":0},"c":{"a":0,"k":[0,0,0,0]},"lc":3,"lj":1,"ml":1},{"ty":"fl","o":{"a":0,"k":100},"r":1,"c":{"a":0,"k":[1,1,1,1]}},{"ty":"tr","o":{"a":0,"k":100},"a":{"a":0,"k":[0,0]},"s":{"a":0,"k":[100,100]},"p":{"a":0,"k":[0,0]},"r":{"a":0,"k":0}}]},{"ty":"gr","nm":"XMLID 154 shape group","it":[{"ty":"sh","ks":{"a":0,"k":{"c":true,"v":[[579.255,8.68358],[582.675,8.55834],[591.642,8.34961],[604.321,8.14087],[618.876,8.05736],[626.258,8.09915],[633.431,8.14087],[646.11,8.34961],[655.077,8.55834],[658.497,8.68358],[655.077,8.80881],[646.11,9.01754],[633.431,9.22622],[626.258,9.268],[618.876,9.30973],[604.321,9.22622],[591.642,9.01754],[582.675,8.80881]],"i":[[0,0],[-2.1689999999999827,0.0835000000000008],[-3.7120000000001028,0.041739999999999],[-4.6299999999999955,0.041740000000000776],[-4.962999999999965,0.0417500000000004],[-2.4189999999999827,-0.0417500000000004],[-2.3350000000000364,0],[-3.711999999999989,-0.0834899999999994],[-2.1689999999999827,-0.041739999999999],[0,0],[2.1689999999999827,-0.0834899999999994],[3.711999999999989,-0.041740000000000776],[4.6299999999999955,-0.0417500000000004],[2.4610000000000127,0],[2.4610000000000127,-0.0417500000000004],[4.629000000000019,0.041740000000000776],[3.711999999999989,0.0834899999999994],[2.1690000000000964,0.041740000000000776]],"o":[[0,0],[2.1690000000000964,-0.041739999999999],[3.711999999999989,-0.0417500000000004],[4.629000000000019,-0.0417500000000004],[2.4610000000000127,0],[2.4189999999999827,0],[4.6299999999999955,0.041740000000000776],[3.711999999999989,0.041739999999999],[2.1689999999999827,0.0835000000000008],[0,0],[-2.1689999999999827,0.041740000000000776],[-3.711999999999989,0.0417500000000004],[-2.3350000000000364,0],[-2.4189999999999827,0],[-4.962999999999965,0],[-4.6299999999999955,-0.0417500000000004],[-3.7120000000001028,-0.041740000000000776],[-2.2099999999999227,-0.0834899999999994]]}}},{"ty":"st","o":{"a":0,"k":0},"w":{"a":0,"k":0},"c":{"a":0,"k":[0,0,0,0]},"lc":3,"lj":1,"ml":1},{"ty":"fl","o":{"a":0,"k":100},"r":1,"c":{"a":0,"k":[1,1,1,1]}},{"ty":"tr","o":{"a":0,"k":100},"a":{"a":0,"k":[0,0]},"s":{"a":0,"k":[100,100]},"p":{"a":0,"k":[0,0]},"r":{"a":0,"k":0}}]},{"ty":"gr","nm":"XMLID 154 shape group","it":[{"ty":"sh","ks":{"a":0,"k":{"c":true,"v":[[0,3.54841],[10.5099,3.42316],[38.2445,3.21439],[77.4482,3.00569],[122.407,2.92217],[167.366,3.00569],[206.57,3.21439],[234.305,3.42316],[244.815,3.54841],[234.305,3.67366],[206.57,3.88243],[167.366,4.0912],[122.407,4.17472],[77.4482,4.0912],[38.2445,3.88243],[10.5099,3.67366]],"i":[[0,0],[-6.6729400000000005,0.08350999999999997],[-11.4692,0.08350999999999997],[-14.346899999999998,0.08349999999999991],[-15.305999999999997,0.041749999999999954],[-14.346000000000004,-0.041749999999999954],[-11.468999999999994,-0.08349999999999991],[-6.673000000000002,-0.0417500000000004],[0,0],[6.673000000000002,-0.08349999999999991],[11.468999999999994,-0.08349999999999991],[14.34699999999998,-0.08349999999999991],[15.305999999999997,-0.04174999999999951],[14.346800000000002,0.0417500000000004],[11.469099999999997,0.08350000000000035],[6.673,0.041749999999999954]],"o":[[0,0],[6.714699999999999,-0.0417500000000004],[11.469099999999997,-0.041749999999999954],[14.346800000000002,-0.041749999999999954],[15.305999999999997,0.041749999999999954],[14.34699999999998,0.08349999999999991],[11.468999999999994,0.08350999999999997],[6.713999999999999,0.08350999999999997],[0,0],[-6.715000000000003,0.041749999999999954],[-11.468999999999994,0.041749999999999954],[-14.346000000000004,0.0417500000000004],[-15.305999999999997,-0.04174999999999951],[-14.346899999999998,-0.08349999999999991],[-11.4692,-0.08349999999999991],[-6.6729400000000005,-0.08349999999999991]]}}},{"ty":"st","o":{"a":0,"k":0},"w":{"a":0,"k":0},"c":{"a":0,"k":[0,0,0,0]},"lc":3,"lj":1,"ml":1},{"ty":"fl","o":{"a":0,"k":100},"r":1,"c":{"a":0,"k":[1,1,1,1]}},{"ty":"tr","o":{"a":0,"k":100},"a":{"a":0,"k":[0,0]},"s":{"a":0,"k":[100,100]},"p":{"a":0,"k":[0,0]},"r":{"a":0,"k":0}}]},{"ty":"gr","nm":"XMLID 154 shape group","it":[{"ty":"sh","ks":{"a":0,"k":{"c":true,"v":[[5.42113,18.7456],[8.96614,18.6203],[18.3083,18.4116],[31.4874,18.2029],[46.6267,18.1194],[54.3007,18.1611],[61.7244,18.2029],[74.9035,18.4116],[84.2457,18.6203],[87.7907,18.7456],[84.2457,18.8708],[74.9035,19.0796],[61.7244,19.2883],[54.3007,19.3301],[46.6267,19.3719],[31.4874,19.2883],[18.3083,19.0796],[8.96614,18.8708]],"i":[[0,0],[-2.2521299999999993,0.0835000000000008],[-3.8786999999999985,0.041799999999998505],[-4.7962000000000025,0.04169999999999874],[-5.171500000000002,0.04170000000000229],[-2.5441000000000003,-0.04180000000000206],[-2.3773000000000053,0],[-3.836999999999989,-0.0835000000000008],[-2.252200000000002,-0.04169999999999874],[0,0],[2.2520999999999987,-0.0835000000000008],[3.878600000000006,-0.041799999999998505],[4.796199999999999,-0.04169999999999874],[2.502299999999998,0],[2.585799999999999,-0.041799999999998505],[4.837899999999998,0.04180000000000206],[3.8369999999999997,0.0835000000000008],[2.25216,0.04180000000000206]],"o":[[0,0],[2.25216,-0.04169999999999874],[3.878700000000002,-0.04169999999999874],[4.837899999999998,-0.041799999999998505],[2.585799999999999,0],[2.5441000000000003,0],[4.8378999999999905,0.04169999999999874],[3.878600000000006,0.041799999999998505],[2.2520999999999987,0.0835000000000008],[0,0],[-2.252200000000002,0.04180000000000206],[-3.878699999999995,0.04170000000000229],[-2.419000000000004,0],[-2.5441000000000003,0],[-5.129800000000003,0],[-4.837900000000001,-0.04169999999999874],[-3.8786999999999985,-0.041799999999998505],[-2.2521299999999993,-0.0835000000000008]]}}},{"ty":"st","o":{"a":0,"k":0},"w":{"a":0,"k":0},"c":{"a":0,"k":[0,0,0,0]},"lc":3,"lj":1,"ml":1},{"ty":"fl","o":{"a":0,"k":100},"r":1,"c":{"a":0,"k":[1,1,1,1]}},{"ty":"tr","o":{"a":0,"k":100},"a":{"a":0,"k":[0,0]},"s":{"a":0,"k":[100,100]},"p":{"a":0,"k":[0,0]},"r":{"a":0,"k":0}}]},{"ty":"gr","nm":"XMLID 154 shape group","it":[{"ty":"sh","ks":{"a":0,"k":{"c":true,"v":[[136.546,20.9167],[138.006,20.7914],[141.801,20.5409],[147.181,20.3321],[153.354,20.2486],[156.482,20.2904],[159.526,20.3321],[164.907,20.5409],[168.702,20.7914],[170.162,20.9167],[168.702,21.0419],[164.907,21.2924],[159.526,21.5012],[156.482,21.543],[153.354,21.5847],[147.181,21.5012],[141.801,21.2924],[138.006,21.0419]],"i":[[0,0],[-0.9170000000000016,0.0835000000000008],[-1.542999999999978,0.0835000000000008],[-1.960000000000008,0.041799999999998505],[-2.085000000000008,0.04180000000000206],[-1.0430000000000064,-0.04170000000000229],[-1,0],[-1.585000000000008,-0.0835000000000008],[-0.9180000000000064,-0.0835000000000008],[0,0],[0.9170000000000016,-0.08349999999999724],[1.542999999999978,-0.0835000000000008],[1.9609999999999843,-0.04180000000000206],[1.0430000000000064,0],[1.042999999999978,-0.04180000000000206],[1.9609999999999843,0.04169999999999874],[1.585000000000008,0.0835000000000008],[0.9180000000000064,0.0835000000000008]],"o":[[0,0],[0.9180000000000064,-0.04169999999999874],[1.585000000000008,-0.0835000000000008],[1.9609999999999843,-0.04169999999999874],[1.042999999999978,0],[1.0430000000000064,0],[1.9609999999999843,0.041799999999998505],[1.5840000000000032,0.0835000000000008],[0.9170000000000016,0.0835000000000008],[0,0],[-0.9180000000000064,0.04180000000000206],[-1.585000000000008,0.0835000000000008],[-1,0],[-1.0430000000000064,0],[-2.085000000000008,0],[-1.960000000000008,-0.04180000000000206],[-1.5839999999999748,-0.0835000000000008],[-0.9170000000000016,-0.08349999999999724]]}}},{"ty":"st","o":{"a":0,"k":0},"w":{"a":0,"k":0},"c":{"a":0,"k":[0,0,0,0]},"lc":3,"lj":1,"ml":1},{"ty":"fl","o":{"a":0,"k":100},"r":1,"c":{"a":0,"k":[1,1,1,1]}},{"ty":"tr","o":{"a":0,"k":100},"a":{"a":0,"k":[0,0]},"s":{"a":0,"k":[100,100]},"p":{"a":0,"k":[0,0]},"r":{"a":0,"k":0}}]},{"ty":"gr","nm":"XMLID 154 shape group","it":[{"ty":"sh","ks":{"a":0,"k":{"c":true,"v":[[259.203,0.66794],[261.497,0.542646],[267.502,0.292184],[276.011,0.0834448],[285.77,0],[290.733,0.0417224],[295.529,0.0834448],[304.037,0.292184],[310.043,0.542646],[312.336,0.66794],[310.043,0.793171],[304.037,1.04363],[295.529,1.25237],[290.733,1.29409],[285.77,1.33582],[276.011,1.25237],[267.502,1.04363],[261.497,0.793171]],"i":[[0,0],[-1.4600000000000364,0.08349000000000006],[-2.4600000000000364,0.08349099999999998],[-3.087000000000046,0.041745199999999996],[-3.336999999999989,0.0417453],[-1.6270000000000095,-0.0417453305],[-1.5430000000000064,0],[-2.5019999999999527,-0.08349100000000001],[-1.4180000000000064,-0.08349099999999998],[0,0],[1.4590000000000032,-0.08348999999999995],[2.4610000000000127,-0.083488],[3.0860000000000127,-0.04173999999999989],[1.6259999999999764,0],[1.6680000000000064,-0.041749999999999954],[3.1269999999999527,0.041749999999999954],[2.502999999999986,0.08348999999999984],[1.4180000000000064,0.08349100000000009]],"o":[[0,0],[1.4599999999999795,-0.04174599999999995],[2.502999999999986,-0.08349100000000001],[3.1269999999999527,-0.0417453],[1.6680000000000064,0],[1.6259999999999764,0],[3.127999999999986,0.041745199999999996],[2.5020000000000095,0.08349099999999998],[1.4590000000000032,0.08349000000000006],[0,0],[-1.4599999999999795,0.04174600000000006],[-2.5019999999999527,0.08348999999999984],[-1.5430000000000064,0],[-1.6270000000000095,0],[-3.336999999999989,0],[-3.1280000000000427,-0.04173999999999989],[-2.5020000000000095,-0.083488],[-1.4600000000000364,-0.08348999999999995]]}}},{"ty":"st","o":{"a":0,"k":0},"w":{"a":0,"k":0},"c":{"a":0,"k":[0,0,0,0]},"lc":3,"lj":1,"ml":1},{"ty":"fl","o":{"a":0,"k":100},"r":1,"c":{"a":0,"k":[1,1,1,1]}},{"ty":"tr","o":{"a":0,"k":100},"a":{"a":0,"k":[0,0]},"s":{"a":0,"k":[100,100]},"p":{"a":0,"k":[0,0]},"r":{"a":0,"k":0}}]},{"ty":"gr","nm":"XMLID 154 shape group","it":[{"ty":"sh","ks":{"a":0,"k":{"c":true,"v":[[269.839,22.0013],[278.931,21.876],[302.87,21.6673],[336.735,21.4585],[375.522,21.375],[414.309,21.4585],[448.174,21.6673],[472.113,21.876],[481.205,22.0013],[472.113,22.1266],[448.174,22.3353],[414.309,22.5441],[375.522,22.6276],[336.735,22.5441],[302.87,22.3353],[278.931,22.1266]],"i":[[0,0],[-5.796999999999969,0.08349999999999724],[-9.884000000000015,0.0835000000000008],[-12.386000000000024,0.0835000000000008],[-13.178999999999974,0.041799999999998505],[-12.387,-0.04170000000000229],[-9.925999999999988,-0.0835000000000008],[-5.7549999999999955,-0.04170000000000229],[0,0],[5.798000000000002,-0.0835000000000008],[9.884000000000015,-0.0835000000000008],[12.385999999999967,-0.0835000000000008],[13.17900000000003,-0.04180000000000206],[12.387,0.04169999999999874],[9.925999999999988,0.0835000000000008],[5.7549999999999955,0.04169999999999874]],"o":[[0,0],[5.7970000000000255,-0.04170000000000229],[9.925999999999988,-0.04170000000000229],[12.387,-0.04170000000000229],[13.221000000000004,0.041799999999998505],[12.385999999999967,0.0835000000000008],[9.926000000000045,0.0835000000000008],[5.798000000000002,0.08349999999999724],[0,0],[-5.7970000000000255,0.04169999999999874],[-9.925999999999988,0.04169999999999874],[-12.387,0.04169999999999874],[-13.221000000000004,-0.04180000000000206],[-12.386000000000024,-0.0835000000000008],[-9.925999999999988,-0.0835000000000008],[-5.796999999999969,-0.0835000000000008]]}}},{"ty":"st","o":{"a":0,"k":0},"w":{"a":0,"k":0},"c":{"a":0,"k":[0,0,0,0]},"lc":3,"lj":1,"ml":1},{"ty":"fl","o":{"a":0,"k":100},"r":1,"c":{"a":0,"k":[1,1,1,1]}},{"ty":"tr","o":{"a":0,"k":100},"a":{"a":0,"k":[0,0]},"s":{"a":0,"k":[100,100]},"p":{"a":0,"k":[0,0]},"r":{"a":0,"k":0}}]},{"ty":"gr","nm":"XMLID 154 shape group","it":[{"ty":"sh","ks":{"a":0,"k":{"c":true,"v":[[186.384,11.1471],[190.763,11.0218],[202.316,10.8131],[218.623,10.6043],[237.349,10.5208],[246.858,10.5626],[256.075,10.6043],[272.382,10.8131],[283.935,11.0218],[288.314,11.1471],[283.935,11.2723],[272.382,11.4811],[256.075,11.6898],[246.858,11.7316],[237.349,11.7733],[218.623,11.6898],[202.316,11.4811],[190.763,11.2723]],"i":[[0,0],[-2.794000000000011,0.08349999999999902],[-4.795999999999992,0.04169999999999874],[-5.963999999999999,0.08349999999999902],[-6.381,0.041700000000000514],[-3.1280000000000143,-0.04180000000000028],[-3.002999999999986,0],[-4.754000000000019,-0.0835000000000008],[-2.795000000000016,-0.041700000000000514],[0,0],[2.7939999999999827,-0.08349999999999902],[4.795999999999992,-0.04180000000000028],[5.963999999999999,-0.041700000000000514],[3.127999999999986,0],[3.170000000000016,-0.04180000000000028],[6.006,0.04180000000000028],[4.753999999999991,0.0835000000000008],[2.7949999999999875,0.04180000000000028]],"o":[[0,0],[2.7949999999999875,-0.041700000000000514],[4.795999999999992,-0.04180000000000028],[5.963999999999999,-0.041700000000000514],[3.170000000000016,0],[3.127999999999986,0],[5.963999999999999,0.04180000000000028],[4.795999999999992,0.04169999999999874],[2.7939999999999827,0.08349999999999902],[0,0],[-2.795000000000016,0.04180000000000028],[-4.795999999999992,0.041700000000000514],[-3.002999999999986,0],[-3.1280000000000143,0],[-6.381,0],[-5.963999999999999,-0.0835000000000008],[-4.795999999999992,-0.04180000000000028],[-2.794000000000011,-0.08349999999999902]]}}},{"ty":"st","o":{"a":0,"k":0},"w":{"a":0,"k":0},"c":{"a":0,"k":[0,0,0,0]},"lc":3,"lj":1,"ml":1},{"ty":"fl","o":{"a":0,"k":100},"r":1,"c":{"a":0,"k":[1,1,1,1]}},{"ty":"tr","o":{"a":0,"k":100},"a":{"a":0,"k":[0,0]},"s":{"a":0,"k":[100,100]},"p":{"a":0,"k":[0,0]},"r":{"a":0,"k":0}}]}],"op":3600}]},{"id":"precomp_4","layers":[{"ty":4,"nm":"XMLID 166 Copy 1","ip":0,"st":0,"ind":6,"hix":1,"ks":{"o":{"a":0,"k":100},"or":{"a":0,"k":[0,0,0]},"a":{"a":0,"k":[360.5,32.5,0]},"p":{"s":true,"x":{"a":0,"k":360.5},"y":{"a":0,"k":32.5}},"rx":{"a":0,"k":0},"ry":{"a":0,"k":0},"rz":{"a":0,"k":0},"s":{"a":0,"k":[100,100,100]}},"shapes":[{"ty":"gr","nm":"XMLID 166 Copy 1 shape group","it":[{"ty":"sh","ks":{"a":0,"k":{"c":true,"v":[[0,54.1572],[3.67068,54.0319],[13.348,53.8232],[26.988,53.6144],[42.6301,53.5309],[50.5972,53.5727],[58.314,53.6144],[71.954,53.8232],[81.6313,54.0319],[85.302,54.1572],[81.6313,54.2825],[71.954,54.4912],[58.314,54.7],[50.5972,54.7418],[42.6301,54.7835],[26.988,54.7],[13.348,54.4912],[3.67068,54.2825]],"i":[[0,0],[-2.33589,0.0835000000000008],[-4.004420000000001,0.04169999999999874],[-4.963799999999999,0.04179999999999495],[-5.297399999999996,0.04169999999999874],[-2.627900000000004,-0.04179999999999495],[-2.5026999999999973,0],[-3.962699999999998,-0.0835000000000008],[-2.335899999999995,-0.04180000000000206],[0,0],[2.3359000000000094,-0.0835000000000008],[4.004400000000004,-0.04180000000000206],[4.963799999999999,-0.04180000000000206],[2.627899999999997,0],[2.6696000000000026,-0.04179999999999495],[4.963699999999999,0.04169999999999874],[3.9627,0.0835000000000008],[2.3358999999999996,0.04169999999999874]],"o":[[0,0],[2.3358999999999996,-0.04180000000000206],[4.004399999999999,-0.04180000000000206],[5.005500000000001,-0.04180000000000206],[2.6696000000000026,0],[2.627899999999997,0],[5.005499999999998,0.04179999999999495],[4.004400000000004,0.04169999999999874],[2.3359000000000094,0.0835000000000008],[0,0],[-2.335899999999995,0.04169999999999874],[-4.00439999999999,0.04169999999999874],[-2.5026999999999973,0],[-2.627900000000004,0],[-5.339199999999998,0],[-5.005499999999998,-0.04180000000000206],[-4.004420000000001,-0.04180000000000206],[-2.33589,-0.0835000000000008]]}}},{"ty":"st","o":{"a":0,"k":0},"w":{"a":0,"k":0},"c":{"a":0,"k":[0,0,0,0]},"lc":3,"lj":1,"ml":1},{"ty":"fl","o":{"a":0,"k":100},"r":1,"c":{"a":0,"k":[1,1,1,1]}},{"ty":"tr","o":{"a":0,"k":100},"a":{"a":0,"k":[0,0]},"s":{"a":0,"k":[100,100]},"p":{"a":0,"k":[0,0]},"r":{"a":0,"k":0}}]},{"ty":"gr","nm":"XMLID 166 Copy 1 shape group","it":[{"ty":"sh","ks":{"a":0,"k":{"c":true,"v":[[92.4764,32.4444],[94.27,32.3191],[99.0252,32.0686],[105.741,31.8598],[113.458,31.7763],[117.379,31.818],[121.174,31.8598],[127.89,32.0686],[132.645,32.3191],[134.439,32.4444],[132.645,32.5697],[127.89,32.8203],[121.174,33.029],[117.379,33.0708],[113.458,33.1125],[105.741,33.029],[99.0252,32.8203],[94.27,32.5697]],"i":[[0,0],[-1.1261999999999972,0.0835000000000008],[-1.9604999999999961,0.08349999999999369],[-2.4609999999999985,0.04169999999999874],[-2.628,0.04180000000000206],[-1.2930000000000064,-0.04170000000000229],[-1.2510000000000048,0],[-1.9599999999999937,-0.08350000000000435],[-1.1260000000000048,-0.0835000000000008],[0,0],[1.1269999999999811,-0.08359999999999701],[1.9609999999999985,-0.08360000000000412],[2.461999999999989,-0.04180000000000206],[1.2929999999999922,0],[1.3340000000000032,-0.04169999999999874],[2.4609999999999985,0.04169999999999874],[1.960800000000006,0.08349999999999369],[1.1261999999999972,0.0835000000000008]],"o":[[0,0],[1.167900000000003,-0.04169999999999874],[1.960800000000006,-0.08350000000000435],[2.4609999999999985,-0.041799999999998505],[1.2930000000000064,0],[1.2929999999999922,0],[2.461999999999989,0.04169999999999874],[1.9609999999999985,0.08349999999999369],[1.167999999999978,0.0835000000000008],[0,0],[-1.1680000000000064,0.041700000000005844],[-1.9599999999999937,0.08349999999999369],[-1.2510000000000048,0],[-1.2930000000000064,0],[-2.628,0],[-2.4609999999999985,-0.04180000000000206],[-1.9604999999999961,-0.08360000000000412],[-1.1261999999999972,-0.04179999999999495]]}}},{"ty":"st","o":{"a":0,"k":0},"w":{"a":0,"k":0},"c":{"a":0,"k":[0,0,0,0]},"lc":3,"lj":1,"ml":1},{"ty":"fl","o":{"a":0,"k":100},"r":1,"c":{"a":0,"k":[1,1,1,1]}},{"ty":"tr","o":{"a":0,"k":100},"a":{"a":0,"k":[0,0]},"s":{"a":0,"k":[100,100]},"p":{"a":0,"k":[0,0]},"r":{"a":0,"k":0}}]},{"ty":"gr","nm":"XMLID 166 Copy 1 shape group","it":[{"ty":"sh","ks":{"a":0,"k":{"c":true,"v":[[254.322,52.6955],[256.574,52.5702],[262.456,52.3197],[270.798,52.1109],[280.35,52.0273],[285.189,52.0691],[289.902,52.1109],[298.245,52.3197],[304.126,52.5702],[306.379,52.6955],[304.126,52.8207],[298.245,53.0713],[289.902,53.2801],[285.189,53.3218],[280.35,53.3636],[270.798,53.2801],[262.456,53.0713],[256.574,52.8207]],"i":[[0,0],[-1.460000000000008,0.0835000000000008],[-2.420000000000016,0.0835000000000008],[-3.045000000000016,0.04169999999999874],[-3.2530000000000427,0.04180000000000206],[-1.5850000000000364,-0.04169999999999874],[-1.5430000000000064,0],[-2.4610000000000127,-0.08359999999999701],[-1.4179999999999495,-0.0835000000000008],[0,0],[1.4600000000000364,-0.0835000000000008],[2.4189999999999827,-0.08360000000000412],[3.045000000000016,-0.04179999999999495],[1.6269999999999527,0],[1.6269999999999527,-0.04179999999999495],[3.045000000000016,0.041700000000005844],[2.460999999999956,0.0835000000000008],[1.4180000000000064,0.0835000000000008]],"o":[[0,0],[1.4180000000000064,-0.04180000000000206],[2.4189999999999827,-0.08359999999999701],[3.045000000000016,-0.04180000000000206],[1.6269999999999527,0],[1.5849999999999795,0],[3.045000000000016,0.04169999999999874],[2.4189999999999827,0.0835000000000008],[1.4190000000000396,0.0835000000000008],[0,0],[-1.4179999999999495,0.04179999999999495],[-2.4189999999999827,0.0835000000000008],[-1.5430000000000064,0],[-1.5850000000000364,0],[-3.2530000000000427,0],[-3.045000000000016,-0.04179999999999495],[-2.420000000000016,-0.08360000000000412],[-1.460000000000008,-0.04169999999999874]]}}},{"ty":"st","o":{"a":0,"k":0},"w":{"a":0,"k":0},"c":{"a":0,"k":[0,0,0,0]},"lc":3,"lj":1,"ml":1},{"ty":"fl","o":{"a":0,"k":100},"r":1,"c":{"a":0,"k":[1,1,1,1]}},{"ty":"tr","o":{"a":0,"k":100},"a":{"a":0,"k":[0,0]},"s":{"a":0,"k":[100,100]},"p":{"a":0,"k":[0,0]},"r":{"a":0,"k":0}}]},{"ty":"gr","nm":"XMLID 166 Copy 1 shape group","it":[{"ty":"sh","ks":{"a":0,"k":{"c":true,"v":[[462.425,7.89182],[464.552,7.76657],[470.141,7.51601],[478.025,7.3073],[487.077,7.22378],[491.665,7.26551],[496.128,7.3073],[504.012,7.51601],[509.602,7.76657],[511.729,7.89182],[509.602,8.01707],[504.012,8.26757],[496.128,8.47635],[491.665,8.51807],[487.077,8.5598],[478.025,8.47635],[470.141,8.26757],[464.552,8.01707]],"i":[[0,0],[-1.3760000000000332,0.08351000000000042],[-2.3350000000000364,0.0835000000000008],[-2.877999999999986,0.0417500000000004],[-3.086999999999989,0.0417500000000004],[-1.5020000000000095,-0.04174999999999951],[-1.4599999999999795,0],[-2.2939999999999827,-0.08349999999999991],[-1.3769999999999527,-0.08349999999999991],[0,0],[1.3760000000000332,-0.0835000000000008],[2.3360000000000127,-0.08349999999999902],[2.879000000000019,-0.04176000000000002],[1.5439999999999827,0],[1.5430000000000064,-0.04174999999999862],[2.920000000000016,0.0417500000000004],[2.294999999999959,0.08351000000000042],[1.3769999999999527,0.08351000000000042]],"o":[[0,0],[1.3349999999999795,-0.04174999999999951],[2.294999999999959,-0.08349999999999991],[2.8780000000000427,-0.04174999999999951],[1.5430000000000064,0],[1.5019999999999527,0],[2.879000000000019,0.0417500000000004],[2.2939999999999827,0.0835000000000008],[1.3340000000000032,0.08351000000000042],[0,0],[-1.3349999999999795,0.04176000000000002],[-2.2939999999999827,0.08351000000000042],[-1.4599999999999795,0],[-1.5020000000000095,0],[-3.086999999999989,0],[-2.877999999999986,-0.04176000000000002],[-2.2940000000000396,-0.08349999999999902],[-1.3760000000000332,-0.0835000000000008]]}}},{"ty":"st","o":{"a":0,"k":0},"w":{"a":0,"k":0},"c":{"a":0,"k":[0,0,0,0]},"lc":3,"lj":1,"ml":1},{"ty":"fl","o":{"a":0,"k":100},"r":1,"c":{"a":0,"k":[1,1,1,1]}},{"ty":"tr","o":{"a":0,"k":100},"a":{"a":0,"k":[0,0]},"s":{"a":0,"k":[100,100]},"p":{"a":0,"k":[0,0]},"r":{"a":0,"k":0}}]},{"ty":"gr","nm":"XMLID 166 Copy 1 shape group","it":[{"ty":"sh","ks":{"a":0,"k":{"c":true,"v":[[200.845,0.62631],[206.184,0.501048],[220.283,0.292257],[240.18,0.0834655],[262.997,0],[285.813,0.0834655],[305.71,0.292257],[319.809,0.501048],[325.148,0.62631],[319.809,0.751572],[305.71,0.960363],[285.813,1.16915],[262.997,1.25262],[240.18,1.16915],[220.283,0.960363],[206.184,0.751572]],"i":[[0,0],[-3.377999999999986,0.083511],[-5.838999999999999,0.04175499999999999],[-7.25800000000001,0.0417555],[-7.7590000000000146,0.0417557],[-7.298999999999978,-0.0417557],[-5.798000000000002,-0.08351199999999998],[-3.420000000000016,-0.04175600000000007],[0,0],[3.3789999999999623,-0.08351200000000003],[5.840000000000032,-0.041756000000000015],[7.258000000000038,-0.041749999999999954],[7.757999999999981,-0.04176000000000002],[7.299999999999983,0.04176000000000002],[5.798000000000002,0.08350700000000011],[3.4209999999999923,0.041756000000000015]],"o":[[0,0],[3.3789999999999907,-0.04175600000000007],[5.840000000000003,-0.041756000000000015],[7.299999999999983,-0.0417557],[7.757999999999981,0.0417557],[7.300000000000011,0],[5.840000000000032,0.04175499999999999],[3.3789999999999623,0.083511],[0,0],[-3.379000000000019,0.041756000000000015],[-5.838999999999999,0.04175699999999993],[-7.298999999999978,0.04176000000000002],[-7.7590000000000146,-0.04176000000000002],[-7.300000000000011,-0.041749999999999954],[-5.838999999999999,-0.041756000000000015],[-3.377999999999986,-0.08351200000000003]]}}},{"ty":"st","o":{"a":0,"k":0},"w":{"a":0,"k":0},"c":{"a":0,"k":[0,0,0,0]},"lc":3,"lj":1,"ml":1},{"ty":"fl","o":{"a":0,"k":100},"r":1,"c":{"a":0,"k":[1,1,1,1]}},{"ty":"tr","o":{"a":0,"k":100},"a":{"a":0,"k":[0,0]},"s":{"a":0,"k":[100,100]},"p":{"a":0,"k":[0,0]},"r":{"a":0,"k":0}}]},{"ty":"gr","nm":"XMLID 166 Copy 1 shape group","it":[{"ty":"sh","ks":{"a":0,"k":{"c":true,"v":[[656.054,64.3036],[657.597,64.1784],[661.685,63.9279],[667.483,63.7191],[674.115,63.6355],[677.494,63.6773],[680.748,63.7191],[686.546,63.9279],[690.633,64.1784],[692.177,64.3036],[690.633,64.4289],[686.546,64.6794],[680.748,64.8882],[677.494,64.93],[674.115,64.9717],[667.483,64.8882],[661.685,64.6794],[657.597,64.4289]],"i":[[0,0],[-0.9589999999999463,0.0835000000000008],[-1.6689999999999827,0.08349999999999369],[-2.1269999999999527,0.041700000000005844],[-2.2519999999999527,0.04180000000000206],[-1.1259999999999764,-0.041700000000005844],[-1.0430000000000064,0],[-1.7110000000000127,-0.0835000000000008],[-1.00100000000009,-0.0835000000000008],[0,0],[0.9599999999999227,-0.0835000000000008],[1.6680000000000064,-0.0835000000000008],[2.1269999999999527,-0.04169999999999163],[1.0849999999999227,0],[1.1269999999999527,-0.04169999999999163],[2.1270000000000664,0.04180000000000916],[1.7100000000000364,0.0835000000000008],[1.0009999999999764,0.0835000000000008]],"o":[[0,0],[1.0009999999999764,-0.04179999999999495],[1.7100000000000364,-0.0835000000000008],[2.1270000000000664,-0.04179999999999495],[1.1269999999999527,0],[1.1259999999999764,0],[2.1269999999999527,0.041700000000005844],[1.7099999999999227,0.08349999999999369],[1.0019999999999527,0.0835000000000008],[0,0],[-1.00100000000009,0.04179999999999495],[-1.7110000000000127,0.0835000000000008],[-1.0430000000000064,0],[-1.1259999999999764,0],[-2.2519999999999527,0],[-2.1269999999999527,-0.04169999999999163],[-1.7099999999999227,-0.0835000000000008],[-1.0009999999999764,-0.0835000000000008]]}}},{"ty":"st","o":{"a":0,"k":0},"w":{"a":0,"k":0},"c":{"a":0,"k":[0,0,0,0]},"lc":3,"lj":1,"ml":1},{"ty":"fl","o":{"a":0,"k":100},"r":1,"c":{"a":0,"k":[1,1,1,1]}},{"ty":"tr","o":{"a":0,"k":100},"a":{"a":0,"k":[0,0]},"s":{"a":0,"k":[100,100]},"p":{"a":0,"k":[0,0]},"r":{"a":0,"k":0}}]},{"ty":"gr","nm":"XMLID 166 Copy 1 shape group","it":[{"ty":"sh","ks":{"a":0,"k":{"c":true,"v":[[592.442,49.8146],[597.948,49.6893],[612.506,49.4805],[633.112,49.2717],[656.721,49.1883],[680.33,49.2717],[700.936,49.4805],[715.494,49.6893],[721,49.8146],[715.494,49.9398],[700.936,50.1486],[680.33,50.3574],[656.721,50.4409],[633.112,50.3574],[612.506,50.1486],[597.948,49.9398]],"i":[[0,0],[-3.504000000000019,0.08349999999999369],[-6.006999999999948,0.04180000000000206],[-7.5499999999999545,0.04179999999999495],[-8.049999999999955,0.04169999999999874],[-7.550000000000068,-0.041700000000005844],[-6.048000000000002,-0.0835000000000008],[-3.504000000000019,-0.041700000000005844],[0,0],[3.504000000000019,-0.0835000000000008],[6.006999999999948,-0.04180000000000206],[7.5499999999999545,-0.04179999999999495],[8.051000000000045,-0.04169999999999874],[7.550000000000068,0.04169999999999874],[6.048000000000002,0.0835000000000008],[3.504000000000019,0.04180000000000206]],"o":[[0,0],[3.504000000000019,-0.041700000000005844],[6.048000000000002,-0.04169999999999874],[7.550000000000068,-0.041700000000005844],[8.051000000000045,0.04169999999999874],[7.5499999999999545,0],[6.048999999999978,0.04180000000000206],[3.504000000000019,0.08349999999999369],[0,0],[-3.504000000000019,0.04180000000000206],[-6.048000000000002,0.04179999999999495],[-7.550000000000068,0.04169999999999874],[-8.049999999999955,-0.04169999999999874],[-7.5499999999999545,-0.04179999999999495],[-6.048000000000002,-0.04180000000000206],[-3.461999999999989,-0.0835000000000008]]}}},{"ty":"st","o":{"a":0,"k":0},"w":{"a":0,"k":0},"c":{"a":0,"k":[0,0,0,0]},"lc":3,"lj":1,"ml":1},{"ty":"fl","o":{"a":0,"k":100},"r":1,"c":{"a":0,"k":[1,1,1,1]}},{"ty":"tr","o":{"a":0,"k":100},"a":{"a":0,"k":[0,0]},"s":{"a":0,"k":[100,100]},"p":{"a":0,"k":[0,0]},"r":{"a":0,"k":0}}]},{"ty":"gr","nm":"XMLID 166 Copy 1 shape group","it":[{"ty":"sh","ks":{"a":0,"k":{"c":true,"v":[[410.367,41.1291],[415.247,41.0038],[428.136,40.795],[446.365,40.5863],[467.263,40.5027],[488.161,40.5863],[506.389,40.795],[519.278,41.0038],[524.158,41.1291],[519.278,41.2543],[506.389,41.4631],[488.161,41.6719],[467.263,41.7555],[446.365,41.6719],[428.136,41.4631],[415.247,41.2543]],"i":[[0,0],[-3.086999999999989,0.0835000000000008],[-5.338999999999999,0.04179999999999495],[-6.674000000000035,0.04169999999999874],[-7.132999999999981,0.04180000000000206],[-6.673999999999978,-0.04180000000000206],[-5.338999999999999,-0.0835000000000008],[-3.086999999999989,-0.04169999999999874],[0,0],[3.086999999999989,-0.0835000000000008],[5.338999999999999,-0.04169999999999874],[6.673999999999978,-0.04169999999999874],[7.132000000000005,-0.04179999999999495],[6.673999999999978,0.04180000000000206],[5.339999999999975,0.08360000000000412],[3.086999999999989,0.04180000000000206]],"o":[[0,0],[3.1289999999999623,-0.04169999999999874],[5.339999999999975,-0.04169999999999874],[6.673999999999978,-0.04180000000000206],[7.132000000000005,0.04180000000000206],[6.673999999999978,0],[5.338999999999999,0.04179999999999495],[3.129000000000019,0.0835000000000008],[0,0],[-3.1280000000000427,0.04180000000000206],[-5.338999999999999,0.04180000000000206],[-6.673999999999978,0.04180000000000206],[-7.132999999999981,-0.04179999999999495],[-6.674000000000035,-0.04169999999999874],[-5.338999999999999,-0.04169999999999874],[-3.086999999999989,-0.0835000000000008]]}}},{"ty":"st","o":{"a":0,"k":0},"w":{"a":0,"k":0},"c":{"a":0,"k":[0,0,0,0]},"lc":3,"lj":1,"ml":1},{"ty":"fl","o":{"a":0,"k":100},"r":1,"c":{"a":0,"k":[1,1,1,1]}},{"ty":"tr","o":{"a":0,"k":100},"a":{"a":0,"k":[0,0]},"s":{"a":0,"k":[100,100]},"p":{"a":0,"k":[0,0]},"r":{"a":0,"k":0}}]}],"op":3600}]}],"layers":[{"ty":0,"nm":"instance:precomp_1","refId":"precomp_1","ind":9,"ip":0,"st":0,"hix":1,"ks":{"o":{"a":0,"k":100},"or":{"a":0,"k":[0,0,0]},"a":{"a":0,"k":[700,492,0]},"p":{"s":true,"x":{"a":0,"k":699.733},"y":{"a":0,"k":491.649}},"rx":{"a":0,"k":0},"ry":{"a":0,"k":0},"rz":{"a":0,"k":0},"s":{"a":0,"k":[100,100,100]}},"w":1400,"h":984,"op":3600},{"ty":0,"nm":"instance:precomp_2","refId":"precomp_2","ind":8,"ip":0,"st":0,"hix":4,"ks":{"o":{"a":0,"k":100},"or":{"a":0,"k":[0,0,0]},"a":{"a":0,"k":[699.5,64.5,0]},"p":{"s":true,"x":{"a":0,"k":697.80078125},"y":{"a":0,"k":885.5}},"rx":{"a":0,"k":0},"ry":{"a":0,"k":0},"rz":{"a":0,"k":0},"s":{"a":0,"k":[100,100,100]}},"w":1399,"h":129,"op":3600},{"ty":0,"nm":"instance:precomp_3","refId":"precomp_3","ind":7,"ip":0,"st":0,"hix":5,"ks":{"o":{"a":0,"k":100},"or":{"a":0,"k":[0,0,0]},"a":{"a":0,"k":[441,39,0]},"p":{"s":true,"x":{"a":0,"k":698.0338134765625},"y":{"a":0,"k":884.625}},"rx":{"a":0,"k":0},"ry":{"a":0,"k":0},"rz":{"a":0,"k":0},"s":{"a":0,"k":[100,100,100]}},"w":882,"h":78,"op":3600},{"ty":0,"nm":"instance:precomp_4","refId":"precomp_4","ind":6,"ip":0,"st":0,"hix":6,"ks":{"o":{"a":0,"k":100},"or":{"a":0,"k":[0,0,0]},"a":{"a":0,"k":[360.5,32.5,0]},"p":{"s":true,"x":{"a":0,"k":698.266845703125},"y":{"a":0,"k":895.875}},"rx":{"a":0,"k":0},"ry":{"a":0,"k":0},"rz":{"a":0,"k":0},"s":{"a":0,"k":[100,100,100]}},"w":721,"h":65,"op":3600},{"ty":4,"nm":"eezy_08 2","ip":0,"st":0,"ind":5,"hix":9,"ks":{"o":{"a":0,"k":100},"or":{"a":0,"k":[0,0,0]},"a":{"a":0,"k":[700,490.5,0]},"p":{"s":true,"x":{"a":0,"k":699.2329711914062},"y":{"a":0,"k":490.5}},"rx":{"a":0,"k":0},"ry":{"a":0,"k":0},"rz":{"a":0,"k":0},"s":{"a":0,"k":[100,100,100]}},"shapes":[{"ty":"gr","nm":"eezy_08 2 shape group","it":[{"ty":"sh","ks":{"a":0,"k":{"c":true,"v":[[1398.63,806.856],[1393.87,778.576],[1394.71,806.856],[1389.83,806.856],[1392.83,774.072],[1385.04,806.856],[1384.5,806.856],[1381.25,781.997],[1381.46,805.897],[1372.42,786.126],[1376.96,806.856],[1367.29,806.856],[1370,802.018],[1365.96,806.856],[1364.96,806.856],[1361.71,781.997],[1362.62,798.723],[1359.75,790.005],[1359.75,806.898],[1356.62,806.898],[1357.12,799.182],[1354.83,806.898],[1354.04,806.898],[1364.46,773.78],[1350.67,799.724],[1350.46,796.429],[1353.75,774.113],[1348.62,786.835],[1332.71,763.394],[1344.46,806.898],[1342.83,806.898],[1340.12,800.683],[1333.12,778.827],[1337.62,797.054],[1332.79,793.092],[1333.79,790.005],[1330.25,806.898],[1329.37,806.898],[1320.16,786.168],[1324.71,806.898],[1321,806.898],[1323.71,802.06],[1319.66,806.898],[1318.66,806.898],[1315.41,782.039],[1316.33,798.765],[1313.46,790.047],[1313.46,806.94],[1310.33,806.94],[1310.83,799.223],[1308.54,806.94],[1291.83,806.94],[1285.08,778.868],[1288.75,806.94],[1279.83,806.94],[1285.58,765.563],[1272,804.229],[1267.04,770.818],[1265.29,804.521],[1268,755.552],[1260.58,806.94],[1254.2,806.94],[1257.2,774.155],[1250.62,794.26],[1239.95,749.17],[1242.95,806.94],[1238.45,806.94],[1238.75,804.854],[1235.41,783.29],[1234.33,803.019],[1231.83,770.818],[1227.91,782.581],[1229.2,759.973],[1225.37,799.265],[1223.79,794.552],[1220.37,782.122],[1220.58,806.022],[1211.54,786.251],[1216.08,806.982],[1206.41,806.982],[1209.12,802.143],[1205.08,806.982],[1204.08,806.982],[1200.83,782.122],[1201.74,798.848],[1198.87,790.13],[1198.87,807.023],[1195.87,807.023],[1196.37,799.307],[1194.08,807.023],[1193.29,807.023],[1203.7,773.905],[1189.91,799.849],[1189.7,796.554],[1192.99,774.239],[1187.87,786.96],[1171.95,763.519],[1183.7,807.023],[1182.08,807.023],[1179.37,800.808],[1172.37,778.952],[1176.87,797.18],[1172.03,793.217],[1173.03,790.13],[1169.49,807.023],[1168.62,807.023],[1159.41,786.293],[1163.95,806.648],[1163.49,807.065],[1158.37,807.065],[1153.62,778.785],[1154.87,801.351],[1150.99,789.672],[1151.45,807.065],[1147.87,807.065],[1148.16,804.98],[1144.83,783.415],[1143.74,803.144],[1141.24,770.943],[1137.33,782.706],[1138.62,760.099],[1133.83,779.494],[1128.74,807.107],[1126.74,807.107],[1128.74,789.713],[1124.33,807.107],[1121.66,807.107],[1110.16,784.458],[1115.95,807.107],[1111.57,807.107],[1105.24,778.284],[1109.32,765.688],[1102.37,774.781],[1102.03,774.447],[1102.32,774.864],[1095.74,804.354],[1090.78,770.943],[1092.2,775.156],[1085.57,780.579],[1086.82,767.982],[1087.16,767.607],[1086.82,767.857],[1091.7,755.719],[1083.91,770.359],[1077.57,777.659],[1092.28,734.738],[1070.62,766.647],[1063.66,749.337],[1068.16,779.744],[1067.87,784.207],[1049.57,749.212],[1049.61,749.379],[1059.91,771.194],[1052.7,761.058],[1052.86,760.099],[1052.41,760.766],[1043.91,753.467],[1050.11,765.813],[1049.07,799.39],[1047.28,794.135],[1047.28,807.107],[1043.07,807.107],[1043.36,805.021],[1040.03,783.457],[1038.95,803.186],[1036.45,770.985],[1033.74,805.021],[1034.36,807.107],[1028.53,807.107],[1023.78,778.827],[1024.61,807.107],[1019.74,807.107],[1022.74,774.322],[1014.95,807.107],[1014.41,807.107],[1011.16,782.247],[1011.36,806.147],[1002.32,786.376],[1006.86,807.107],[997.196,807.107],[999.905,802.268],[995.863,807.107],[994.863,807.107],[991.613,782.247],[992.53,798.973],[989.654,790.256],[989.654,807.148],[986.529,807.148],[987.029,799.432],[984.738,807.148],[983.946,807.148],[994.363,774.03],[980.571,799.974],[980.363,796.679],[983.654,774.364],[978.529,787.085],[962.612,763.644],[974.362,807.148],[972.737,807.148],[970.029,800.934],[963.029,779.077],[967.529,797.305],[962.695,793.342],[963.695,790.256],[960.154,807.148],[959.279,807.148],[950.07,786.418],[954.612,807.148],[950.903,807.148],[953.612,802.31],[949.57,807.148],[948.57,807.148],[945.32,782.289],[946.237,799.015],[943.361,790.297],[943.361,807.19],[940.236,807.19],[940.736,799.474],[938.445,807.19],[921.736,807.19],[914.986,779.119],[918.652,807.19],[909.735,807.19],[915.486,765.813],[901.902,804.479],[896.943,771.069],[895.193,804.771],[897.902,755.802],[890.485,807.19],[884.11,807.19],[887.11,774.405],[880.526,794.51],[869.859,749.421],[872.859,807.19],[868.359,807.19],[868.651,805.105],[865.317,783.54],[864.234,803.269],[861.734,771.069],[857.817,782.831],[859.109,760.224],[855.276,799.515],[853.692,794.802],[850.275,782.372],[850.484,806.273],[841.442,786.502],[845.984,807.232],[836.317,807.232],[839.025,802.393],[834.983,807.232],[833.983,807.232],[830.733,782.372],[831.65,799.098],[828.775,790.381],[828.775,807.274],[825.65,807.274],[826.15,799.557],[823.858,807.274],[823.066,807.274],[833.483,774.155],[819.691,800.099],[819.483,796.804],[822.775,774.489],[817.649,787.211],[801.732,763.769],[813.483,807.274],[811.858,807.274],[809.149,801.059],[802.149,779.202],[806.649,797.43],[801.816,793.467],[802.816,790.381],[799.274,807.274],[798.399,807.274],[789.19,786.543],[793.732,806.898],[793.274,807.315],[788.065,807.315],[783.315,779.035],[784.565,801.601],[780.648,789.922],[781.107,807.315],[776.273,807.315],[777.065,802.393],[775.19,807.315],[773.356,807.315],[787.065,767.815],[768.273,803.144],[767.981,798.639],[772.481,768.274],[765.523,785.584],[758.689,769.442],[760.106,765.896],[757.814,768.065],[743.814,753.675],[753.272,774.697],[750.022,782.956],[744.397,774.697],[749.147,786.251],[747.272,796.345],[746.522,795.72],[741.605,771.194],[743.022,775.406],[736.397,780.829],[742.564,755.969],[733.022,785.751],[731.188,789.338],[727.563,785.25],[743.147,734.947],[721.48,766.856],[714.521,749.546],[719.021,779.953],[718.73,784.416],[700.438,749.421],[700.479,749.587],[714.938,807.274],[713.021,807.274],[713.313,805.188],[709.979,783.623],[708.896,803.353],[706.396,771.152],[702.479,782.914],[703.771,760.307],[699.188,791.549],[695.021,779.035],[695.854,807.315],[690.979,807.315],[693.979,774.531],[686.187,807.315],[685.645,807.315],[682.395,782.456],[682.604,806.356],[673.562,786.585],[678.104,807.315],[668.437,807.315],[671.145,802.477],[667.103,807.315],[666.103,807.315],[662.853,782.456],[663.77,799.182],[660.895,790.464],[660.895,807.357],[657.77,807.357],[658.27,799.641],[655.978,807.357],[655.186,807.357],[665.603,774.239],[651.811,800.183],[651.603,796.888],[654.895,774.572],[649.769,787.294],[633.852,763.853],[645.603,807.357],[643.978,807.357],[641.269,801.142],[634.269,779.286],[638.769,797.513],[633.936,793.551],[634.936,790.464],[631.394,807.357],[630.519,807.357],[621.31,786.627],[625.852,807.357],[622.144,807.357],[624.852,802.519],[620.81,807.357],[619.81,807.357],[616.56,782.497],[617.477,799.223],[614.602,790.506],[614.602,807.399],[611.477,807.399],[611.977,799.682],[609.685,807.399],[592.976,807.399],[586.226,779.327],[589.893,807.399],[580.976,807.399],[586.726,766.021],[573.142,804.688],[568.184,771.277],[566.434,804.98],[569.142,756.011],[561.725,807.399],[555.35,807.399],[558.35,774.614],[551.766,794.719],[541.099,749.629],[544.1,807.399],[539.599,807.399],[539.891,805.313],[536.558,783.749],[535.474,803.478],[532.974,771.277],[529.057,783.04],[530.349,760.432],[526.516,799.724],[524.932,795.011],[521.516,782.581],[521.724,806.481],[512.682,786.71],[517.224,807.44],[507.557,807.44],[510.265,802.602],[506.223,807.44],[505.223,807.44],[501.973,782.581],[502.89,799.307],[500.015,790.589],[500.015,807.482],[496.89,807.482],[497.39,799.766],[495.098,807.482],[494.306,807.482],[504.723,774.364],[490.931,800.308],[490.723,797.013],[494.015,774.697],[488.89,787.419],[472.972,763.978],[484.723,807.482],[483.098,807.482],[480.389,801.267],[473.389,779.411],[477.889,797.638],[473.056,793.676],[474.056,790.589],[470.514,807.482],[469.639,807.482],[460.43,786.752],[464.972,807.107],[464.514,807.524],[459.305,807.524],[454.555,779.244],[455.805,801.809],[451.888,790.13],[452.347,807.524],[448.763,807.524],[449.055,805.438],[445.722,783.874],[444.638,803.603],[442.138,771.402],[438.221,783.165],[439.513,760.557],[434.721,779.953],[429.638,807.566],[427.638,807.566],[429.638,790.172],[425.221,807.566],[422.554,807.566],[411.054,784.917],[416.846,807.566],[412.471,807.566],[406.137,778.743],[410.221,766.147],[403.262,775.24],[402.929,774.906],[403.22,775.323],[396.637,804.813],[391.678,771.402],[393.095,775.615],[386.47,781.037],[387.72,768.441],[388.053,768.065],[387.72,768.316],[392.595,756.178],[384.803,770.818],[378.47,778.118],[393.178,735.197],[371.511,767.106],[364.553,749.796],[369.053,780.203],[368.761,784.666],[350.469,749.671],[350.51,749.838],[360.802,771.652],[353.594,761.517],[353.761,760.557],[353.302,761.225],[344.802,753.925],[351.01,766.272],[349.969,799.849],[348.177,794.593],[348.177,807.566],[343.969,807.566],[344.26,805.48],[340.927,783.915],[339.843,803.645],[337.343,771.444],[334.635,805.48],[335.26,807.566],[329.426,807.566],[324.676,779.286],[325.51,807.566],[320.635,807.566],[323.635,774.781],[315.843,807.566],[315.301,807.566],[312.051,782.706],[312.259,806.606],[303.217,786.835],[307.759,807.566],[298.092,807.566],[300.801,802.727],[296.759,807.566],[295.759,807.566],[292.509,782.706],[293.425,799.432],[290.55,790.714],[290.55,807.607],[287.425,807.607],[287.925,799.891],[285.634,807.607],[284.842,807.607],[295.259,774.489],[281.467,800.433],[281.258,797.138],[284.55,774.822],[279.425,787.544],[263.508,764.103],[275.258,807.607],[273.633,807.607],[270.925,801.392],[263.925,779.536],[268.425,797.763],[263.591,793.801],[264.591,790.714],[261.049,807.607],[260.174,807.607],[250.966,786.877],[255.508,807.607],[251.799,807.607],[254.508,802.769],[250.466,807.607],[249.466,807.607],[246.216,782.748],[247.132,799.474],[244.257,790.756],[244.257,807.649],[241.132,807.649],[241.632,799.932],[239.34,807.649],[222.632,807.649],[215.881,779.578],[219.548,807.649],[210.631,807.649],[216.381,766.272],[202.798,804.938],[197.839,771.527],[196.089,805.23],[198.798,756.261],[191.381,807.649],[185.006,807.649],[188.006,774.864],[181.422,794.969],[170.755,749.879],[173.755,807.649],[170.005,807.649],[170.297,805.563],[166.963,783.999],[165.88,803.728],[163.38,771.527],[159.463,783.29],[160.755,760.682],[156.921,799.974],[155.338,795.261],[151.921,782.831],[152.13,806.731],[143.088,786.96],[147.629,807.691],[137.962,807.691],[140.671,802.852],[136.629,807.691],[135.629,807.691],[132.379,782.831],[133.296,799.557],[130.421,790.84],[130.421,807.732],[127.295,807.732],[127.795,800.016],[125.504,807.732],[124.712,807.732],[135.129,774.614],[121.337,800.558],[121.129,797.263],[124.42,774.948],[119.295,787.669],[103.378,764.228],[115.128,807.732],[113.503,807.732],[110.795,801.517],[103.795,779.661],[108.295,797.889],[103.461,793.926],[104.461,790.84],[100.92,807.732],[100.045,807.732],[90.836,787.002],[95.3778,807.357],[94.9195,807.774],[89.711,807.774],[84.9609,779.494],[86.2109,802.06],[82.2941,790.381],[82.7525,807.774],[77.919,807.774],[78.7107,802.852],[76.8356,807.774],[75.0022,807.774],[88.711,768.274],[69.9188,803.603],[69.6271,799.098],[74.1272,768.733],[67.1687,786.043],[60.3351,769.901],[61.7518,766.355],[59.4601,768.524],[45.4597,754.134],[54.9183,775.156],[51.6682,783.415],[46.043,775.156],[50.7932,786.71],[48.9181,796.804],[48.1681,796.179],[43.2513,771.652],[44.668,775.865],[38.0428,781.288],[44.2097,756.428],[34.6677,786.21],[32.8343,789.797],[29.2092,785.709],[44.793,735.406],[23.1257,767.315],[16.1671,750.004],[20.6673,780.412],[20.3756,784.875],[2.0834,749.879],[2.12506,750.046],[16.5838,807.732],[14.8754,807.732],[15.1671,805.647],[11.8337,784.082],[10.7503,803.812],[8.25025,771.611],[4.33346,783.373],[5.62517,760.766],[1.79172,800.058],[0,794.802],[0,807.774],[0,810.277],[0,812.404],[1400.04,812.404],[1400.04,807.774],[1398.63,807.774]],"i":[[0,0],[4.710000000000036,6.423999999999978],[1.7100000000000364,-16.350000000000023],[0,0],[-3.6599999999998545,7.6749999999999545],[1.1300000000001091,-24.442000000000007],[0,0],[4.25,5.7560000000000855],[1.9600000000000364,-13.55600000000004],[5.4099999999998545,4.338000000000079],[-0.5399999999999636,-12.136999999999944],[0,0],[-1.25,1.2930000000000064],[1.75,-3.544999999999959],[0,0],[4.25,5.7560000000000855],[0.5500000000001819,-9.885999999999967],[1.6700000000000728,2.2530000000000427],[0.9600000000000364,-7.508000000000038],[0,0],[-0.7899999999999636,2.2519999999999527],[0.7100000000000364,-4.6299999999999955],[0,0],[-7.630000000000109,7.423999999999978],[1.3699999999998909,-17.394000000000005],[0.21000000000003638,2.0439999999999827],[-2.5399999999999636,5.255999999999972],[2.300000000000182,-9.218000000000075],[9.289999999999964,6.173000000000002],[-0.4600000000000364,-26.027000000000044],[0,0],[1.1700000000000728,2.1280000000000427],[5.460000000000036,5.2140000000000555],[0,-12.55499999999995],[1.8700000000001182,0.95900000000006],[-0.42000000000007276,0.9600000000000364],[0.6199999999998909,-11.971000000000004],[0,0],[5.709999999999809,4.546000000000049],[-0.5499999999999545,-12.138000000000034],[0,0],[-1.25,1.2930000000000064],[1.75,-3.5450000000000728],[0,0],[4.25,5.755999999999972],[0.5399999999999636,-9.885999999999967],[1.6599999999998545,2.2519999999999527],[0.9500000000000455,-7.508000000000038],[0,0],[-0.7899999999999636,2.2530000000000427],[0.7100000000000364,-4.630000000000109],[0,0],[7,6.673999999999978],[3.160000000000082,-19.479000000000042],[0,0],[0,0],[0.25,-5.2560000000000855],[0,0],[0,0],[0,0],[-0.21000000000003638,-0.9180000000000064],[0,0],[-3.660000000000082,7.675000000000068],[2.290000000000191,-14.724000000000046],[0,0],[0.9199999999998454,-8.259000000000015],[0,0],[-0.08999999999991815,0.7089999999999463],[0,0],[0,0],[0,0],[0.5,-4.462999999999965],[0,0],[0,0],[0.6200000000001182,1.3349999999999227],[2.1200000000001182,2.9200000000000728],[1.9600000000000364,-13.55600000000004],[5.410000000000082,4.338000000000079],[-0.5399999999999636,-12.13799999999992],[0,0],[-1.25,1.2930000000000064],[1.75,-3.5459999999999354],[0,0],[4.25,5.7560000000000855],[0.5499999999999545,-9.884999999999991],[1.6700000000000728,2.2530000000000427],[0.9600000000000364,-7.508000000000038],[0,0],[-0.7899999999999636,2.2519999999999527],[0.7100000000000364,-4.6299999999999955],[0,0],[-7.620000000000118,7.423999999999978],[1.3799999999998818,-17.39300000000003],[0.21000000000003638,2.0439999999999827],[-2.5399999999999636,5.2549999999999955],[2.290000000000191,-9.218000000000075],[9.289999999999964,6.173000000000002],[-0.4600000000000364,-26.027000000000044],[0,0],[1.1700000000000728,2.1280000000000427],[5.460000000000036,5.2140000000000555],[0,-12.55499999999995],[1.8800000000001091,0.95900000000006],[-0.41000000000008185,0.9600000000000364],[0.6299999999998818,-11.971000000000004],[0,0],[5.709999999999809,4.546000000000049],[-0.5800000000001546,-11.971000000000004],[0.17000000000007276,-0.125],[0,0],[4.710000000000036,6.423999999999978],[0.7100000000000364,-13.347999999999956],[2.2100000000000364,3.044999999999959],[0.4199999999998454,-8.759000000000015],[0,0],[-0.08000000000015461,0.7089999999999463],[0,0],[0,0],[0,0],[0.5,-4.462999999999965],[0,0],[0.2899999999999636,-7.341000000000008],[0.6299999999998818,-14.014999999999986],[0,0],[-2.3700000000001182,5.2560000000000855],[1.3700000000001182,-12.26299999999992],[0,0],[6.289999999999964,5.0049999999999955],[-1.5,-13.555999999999926],[0,0],[5.379999999999882,7.926000000000045],[0,0],[1.790000000000191,-3.586999999999989],[0.13000000000010914,0.08399999999994634],[-0.15999999999985448,-0.25],[0.17000000000007276,-3.963000000000079],[0,0],[-0.38000000000010914,-1.4599999999999227],[1.8400000000001455,-2.210999999999899],[-0.75,3.4200000000000728],[-0.13000000000010914,0.125],[0.21000000000003638,-0.16699999999991633],[0,0],[1.3699999999998909,-5.6720000000000255],[2.2999999999999545,-3.211999999999989],[0,0],[2.9500000000000455,-10.552999999999997],[0,0],[-0.040000000000190994,-11.302999999999997],[0,0],[2.7899999999999636,2.1270000000000664],[0,-0.04200000000003001],[-2.0900000000001455,-8.384000000000015],[2.9099999999998545,3.169999999999959],[0,0],[0.15999999999985448,-0.20899999999994634],[3.25,2.1680000000000064],[-3.3299999999999272,-7.883000000000038],[0,0],[0.7100000000000364,1.4600000000000364],[0,0],[0,0],[-0.07999999999992724,0.70900000000006],[0,0],[0,0],[0,0],[0,0],[0,0],[0,0],[4.710000000000036,6.423000000000002],[1.7100000000000364,-16.351],[0,0],[-3.669999999999959,7.6749999999999545],[1.1200000000000045,-24.442999999999984],[0,0],[4.25,5.7560000000000855],[1.9600000000000364,-13.55600000000004],[5.419999999999959,4.338000000000079],[-0.5399999999999636,-12.13799999999992],[0,0],[-1.25,1.2930000000000064],[1.75,-3.5459999999999354],[0,0],[4.25,5.7560000000000855],[0.5410000000000537,-9.884999999999991],[1.66700000000003,2.2520000000000664],[0.95900000000006,-7.508000000000038],[0,0],[-0.79099999999994,2.2519999999999527],[0.70799999999997,-4.629000000000019],[0,0],[-7.625,7.425000000000068],[1.375,-17.39300000000003],[0.20799999999997,2.0439999999999827],[-2.54099999999994,5.2549999999999955],[2.29200000000003,-9.218000000000075],[9.29200000000003,6.173000000000002],[-0.45799999999997,-26.027000000000044],[0,0],[1.16700000000003,2.1270000000000664],[5.45799999999997,5.2140000000000555],[0,-12.55499999999995],[1.875,0.95900000000006],[-0.41600000000005366,0.95900000000006],[0.625,-11.971000000000004],[0,0],[5.708999999999946,4.5470000000000255],[-0.5419999999999163,-12.137000000000057],[0,0],[-1.25,1.2930000000000064],[1.75,-3.5450000000000728],[0,0],[4.25,5.755999999999972],[0.5410000000000537,-9.885999999999967],[1.66700000000003,2.252999999999929],[0.95900000000006,-7.508000000000038],[0,0],[-0.79099999999994,2.2519999999999527],[0.70799999999997,-4.630000000000109],[0,0],[7,6.673000000000002],[3.1669999999999163,-19.479000000000042],[0,0],[0,0],[0.25,-5.2560000000000855],[0,0],[0,0],[0,0],[-0.20799999999997,-0.91700000000003],[0,0],[-3.66700000000003,7.675000000000068],[2.29200000000003,-14.724000000000046],[0,0],[0.9169999999999163,-8.259000000000015],[0,0],[-0.08299999999996999,0.7089999999999463],[0,0],[0,0],[0,0],[0.5,-4.462999999999965],[0,0],[0,0],[0.625,1.3349999999999227],[2.125,2.9200000000000728],[1.95799999999997,-13.557000000000016],[5.41700000000003,4.337000000000103],[-0.54200000000003,-12.13799999999992],[0,0],[-1.25,1.2930000000000064],[1.75,-3.5459999999999354],[0,0],[4.25,5.7560000000000855],[0.5410000000000537,-9.884999999999991],[1.6660000000000537,2.2520000000000664],[0.95799999999997,-7.508000000000038],[0,0],[-0.79200000000003,2.2519999999999527],[0.7080000000000837,-4.6299999999999955],[0,0],[-7.625,7.425000000000068],[1.375,-17.39300000000003],[0.20800000000008367,2.0439999999999827],[-2.54200000000003,5.2549999999999955],[2.29200000000003,-9.217999999999961],[9.29200000000003,6.173000000000002],[-0.45899999999994634,-26.02800000000002],[0,0],[1.16700000000003,2.1270000000000664],[5.45799999999997,5.2140000000000555],[0,-12.55499999999995],[1.875,0.9600000000000364],[-0.41700000000003,0.95900000000006],[0.625,-11.971000000000004],[0,0],[5.708999999999946,4.5470000000000255],[-0.58299999999997,-11.971000000000004],[0.16600000000005366,-0.125],[0,0],[4.708999999999946,6.423999999999978],[0.70799999999997,-13.347999999999956],[2.25,3.044999999999959],[0.41600000000005366,-8.759000000000015],[0,0],[-0.5,1.5019999999999527],[0.95799999999997,-3.0860000000000127],[0,0],[-8.91700000000003,8.717999999999961],[1.875,-23.692000000000007],[0.29200000000003,2.794999999999959],[-3.45799999999997,7.173999999999978],[3.125,-12.51299999999992],[3.25,5.4220000000000255],[0,0],[0.70900000000006,-0.79200000000003],[6.04200000000003,4.004000000000019],[-4.416000000000054,-13.26400000000001],[0.875,-2.8360000000000127],[2.4169999999999163,2.2939999999999827],[-1.8330000000000837,-7.8829999999999245],[0.375,-3.0030000000000427],[0.25,0.20799999999997],[0,0],[-0.375,-1.4589999999999463],[1.83299999999997,-2.210999999999899],[0,0],[0.08299999999996999,-10.636999999999944],[0.54200000000003,-1.1680000000000064],[1.33400000000006,1.1680000000000064],[0,0],[2.95799999999997,-10.552999999999997],[0,0],[-0.04099999999993997,-11.303999999999974],[0,0],[2.7910000000000537,2.1269999999999527],[0,-0.04099999999993997],[-0.29200000000003,-8.884999999999991],[0,0],[-0.08299999999996999,0.70900000000006],[0,0],[0,0],[0,0],[0.5,-4.462999999999965],[0,0],[-0.6259999999999764,-9.259999999999991],[2.25,3.086999999999989],[1.70799999999997,-16.350000000000023],[0,0],[-3.66700000000003,7.674000000000092],[1.125,-24.442000000000007],[0,0],[4.250999999999976,5.755999999999972],[1.95799999999997,-13.55600000000004],[5.41700000000003,4.337999999999965],[-0.54200000000003,-12.138000000000034],[0,0],[-1.25,1.2930000000000064],[1.75,-3.5450000000000728],[0,0],[4.25,5.755999999999972],[0.54200000000003,-9.885999999999967],[1.6660000000000537,2.2519999999999527],[0.95799999999997,-7.5079999999999245],[0,0],[-0.79200000000003,2.2520000000000664],[0.7080000000000837,-4.6299999999999955],[0,0],[-7.625,7.423999999999978],[1.375,-17.394000000000005],[0.20800000000008367,2.0430000000000064],[-2.54200000000003,5.255999999999972],[2.29200000000003,-9.217999999999961],[9.29200000000003,6.173000000000002],[-0.45899999999994634,-26.02800000000002],[0,0],[1.16700000000003,2.1269999999999527],[5.45799999999997,5.213000000000079],[0,-12.555000000000064],[1.875,0.9589999999999463],[-0.41700000000003,0.9589999999999463],[0.625,-11.971000000000004],[0,0],[5.70900000000006,4.546000000000049],[-0.54200000000003,-12.13799999999992],[0,0],[-1.25,1.2930000000000064],[1.75,-3.544999999999959],[0,0],[4.25,5.7560000000000855],[0.5410000000000537,-9.884999999999991],[1.6660000000000537,2.2520000000000664],[0.95799999999997,-7.508000000000038],[0,0],[-0.79200000000003,2.252999999999929],[0.7080000000000837,-4.6299999999999955],[0,0],[7,6.673999999999978],[3.16599999999994,-19.479000000000042],[0,0],[0,0],[0.25,-5.255999999999972],[0,0],[0,0],[0,0],[-0.20799999999997,-0.9180000000000064],[0,0],[-3.66700000000003,7.6749999999999545],[2.29200000000003,-14.724000000000046],[0,0],[0.91599999999994,-8.259000000000015],[0,0],[-0.08299999999996999,0.70900000000006],[0,0],[0,0],[0,0],[0.5,-4.463999999999942],[0,0],[0,0],[0.625,1.33400000000006],[2.125,2.9189999999999827],[1.95799999999997,-13.55600000000004],[5.41700000000003,4.337999999999965],[-0.54200000000003,-12.137000000000057],[0,0],[-1.25,1.2930000000000064],[1.75,-3.5450000000000728],[0,0],[4.25,5.755999999999972],[0.54200000000003,-9.885999999999967],[1.66700000000003,2.252999999999929],[0.9580000000000268,-7.5079999999999245],[0,0],[-0.7919999999999732,2.2520000000000664],[0.70799999999997,-4.6299999999999955],[0,0],[-7.625,7.423999999999978],[1.375,-17.394000000000005],[0.20799999999997,2.0439999999999827],[-2.541999999999973,5.255999999999972],[2.290999999999997,-9.217999999999961],[9.29200000000003,6.173000000000002],[-0.4590000000000032,-26.02699999999993],[0,0],[1.1669999999999732,2.127999999999929],[5.459000000000003,5.2140000000000555],[0,-12.555000000000064],[1.875,0.9589999999999463],[-0.41699999999997317,0.9599999999999227],[0.625,-11.971000000000004],[0,0],[5.709000000000003,4.546000000000049],[-0.58299999999997,-11.971000000000004],[0.16699999999997317,-0.125],[0,0],[4.709000000000003,6.423000000000002],[0.7090000000000032,-13.34699999999998],[2.251000000000033,3.044999999999959],[0.4159999999999968,-8.759000000000015],[0,0],[-0.08300000000002683,0.70900000000006],[0,0],[0,0],[0,0],[0.5,-4.462999999999965],[0,0],[0.29199999999997317,-7.341000000000008],[0.625,-14.014999999999986],[0,0],[-2.375,5.255999999999972],[1.375,-12.263000000000034],[0,0],[6.29200000000003,5.0049999999999955],[-1.5,-13.55600000000004],[0,0],[5.375,7.9249999999999545],[0,0],[1.7919999999999732,-3.5879999999999654],[0.125,0.08300000000008367],[-0.16600000000005366,-0.25],[0.16699999999997317,-3.9629999999999654],[0,0],[-0.375,-1.4600000000000364],[1.83299999999997,-2.2100000000000364],[-0.75,3.419999999999959],[-0.125,0.125],[0.20799999999997,-0.16700000000003],[0,0],[1.375,-5.6720000000000255],[2.290999999999997,-3.2120000000001028],[0,0],[2.959000000000003,-10.552999999999997],[0,0],[-0.04199999999997317,-11.302999999999997],[0,0],[2.79200000000003,2.1269999999999527],[0,-0.041999999999916326],[-2.083000000000027,-8.383000000000038],[2.91700000000003,3.169999999999959],[0,0],[0.16699999999997317,-0.20900000000006003],[3.25,2.1690000000000964],[-3.33299999999997,-7.8840000000000146],[0,0],[0.70799999999997,1.4600000000000364],[0,0],[0,0],[-0.08299999999996999,0.7089999999999463],[0,0],[0,0],[0,0],[0,0],[0,0],[0,0],[4.709000000000003,6.423000000000002],[1.7080000000000268,-16.351],[0,0],[-3.666999999999973,7.675000000000068],[1.125,-24.442999999999984],[0,0],[4.25,5.755999999999972],[1.9590000000000032,-13.55600000000004],[5.41700000000003,4.337999999999965],[-0.54200000000003,-12.138000000000034],[0,0],[-1.25,1.2930000000000064],[1.75,-3.546000000000049],[0,0],[4.25,5.755999999999972],[0.5419999999999732,-9.885999999999967],[1.6669999999999732,2.252999999999929],[0.9590000000000032,-7.5079999999999245],[0,0],[-0.7909999999999968,2.2520000000000664],[0.70799999999997,-4.6299999999999955],[0,0],[-7.625,7.423999999999978],[1.375,-17.39300000000003],[0.20900000000000318,2.0439999999999827],[-2.54200000000003,5.255999999999972],[2.291999999999973,-9.217999999999961],[9.29200000000003,6.173000000000002],[-0.45799999999997,-26.02699999999993],[0,0],[1.1659999999999968,2.127999999999929],[5.45799999999997,5.2140000000000555],[0,-12.555000000000064],[1.875,0.9589999999999463],[-0.4159999999999968,0.9599999999999227],[0.625,-11.971000000000004],[0,0],[5.70799999999997,4.546000000000049],[-0.5420000000000016,-12.13799999999992],[0,0],[-1.25,1.2930000000000064],[1.75,-3.544999999999959],[0,0],[4.25,5.755999999999972],[0.5420000000000016,-9.886000000000081],[1.6670000000000016,2.2520000000000664],[0.9590000000000032,-7.508000000000038],[0,0],[-0.7909999999999968,2.252999999999929],[0.7090000000000032,-4.6299999999999955],[0,0],[7.001000000000005,6.673000000000002],[3.1670000000000016,-19.479000000000042],[0,0],[0,0],[0.25,-5.255999999999972],[0,0],[0,0],[0,0],[-0.20900000000000318,-0.9180000000000064],[0,0],[-3.6670000000000016,7.6749999999999545],[2.2920000000000016,-14.724000000000046],[0,0],[0.9170000000000016,-8.259000000000015],[0,0],[-0.08400000000000318,0.7100000000000364],[0,0],[0,0],[0,0],[0.5,-4.462999999999965],[0,0],[0,0],[0.625,1.3350000000000364],[2.125,2.919999999999959],[1.9579999999999984,-13.55600000000004],[5.415999999999997,4.337999999999965],[-0.5409999999999968,-12.138000000000034],[0,0],[-1.25,1.2930000000000064],[1.75,-3.546000000000049],[0,0],[4.25,5.755999999999972],[0.5409999999999968,-9.884999999999991],[1.6659999999999968,2.2519999999999527],[0.9579999999999984,-7.5079999999999245],[0,0],[-0.7909999999999968,2.2520000000000664],[0.7079999999999984,-4.6299999999999955],[0,0],[-7.624999999999986,7.4249999999999545],[1.375,-17.39300000000003],[0.2079999999999984,2.0439999999999827],[-2.540999999999997,5.2549999999999955],[2.2920000000000016,-9.217999999999961],[9.292000000000002,6.173000000000002],[-0.4579999999999984,-26.02699999999993],[0,0],[1.1670000000000016,2.127999999999929],[5.457999999999998,5.2140000000000555],[0,-12.555000000000064],[1.875,0.9589999999999463],[-0.4159999999999968,0.9589999999999463],[0.625,-11.971000000000004],[0,0],[5.708500000000001,4.5470000000000255],[-0.5832999999999942,-11.971000000000004],[0.16670000000000584,-0.125],[0,0],[4.708400000000012,6.423999999999978],[0.7084000000000117,-13.347999999999956],[2.2501000000000033,3.0450000000000728],[0.41670000000000584,-8.759000000000015],[0,0],[-0.5,1.5020000000000664],[0.9583999999999975,-3.0860000000000127],[0,0],[-8.916899999999998,8.716999999999985],[1.875,-23.692000000000007],[0.2916000000000025,2.7950000000000728],[-3.4583999999999975,7.174000000000092],[3.1251000000000033,-12.51400000000001],[3.2501000000000033,5.4220000000000255],[0,0],[0.7084000000000046,-0.79200000000003],[6.041800000000002,4.004000000000019],[-4.416800000000002,-13.263999999999896],[0.875,-2.8360000000000127],[2.416800000000002,2.2940000000000964],[-1.8333999999999975,-7.883000000000038],[0.375,-3.002999999999929],[0.25,0.20799999999997],[0,0],[-0.375,-1.4600000000000364],[1.8333999999999975,-2.2110000000000127],[0,0],[0.08329999999999416,-10.637000000000057],[0.5416999999999987,-1.1680000000000064],[1.333400000000001,1.1680000000000064],[0,0],[2.958400000000001,-10.553000000000111],[0,0],[-0.04170000000000229,-11.304000000000087],[0,0],[2.7917499999999995,2.127999999999929],[0,-0.04100000000005366],[-0.29159999999999897,-8.884000000000015],[0,0],[-0.08329999999999949,0.7089999999999463],[0,0],[0,0],[0,0],[0.5000200000000001,-4.463000000000079],[0,0],[0,0],[0.708354,1.4599999999999227],[0,0],[0,0],[0,0],[0,0],[0,0],[0,0]],"o":[[0.4099999999998545,-9.217999999999961],[0,0],[0,0],[-0.5799999999999272,-10.259999999999991],[0,0],[0,0],[0.5399999999999636,-6.465000000000032],[0,0],[-1.1300000000001091,-6.757000000000062],[0,0],[0,0],[0.6300000000001091,-1.8350000000000364],[0,0],[0,0],[0.5399999999999636,-6.465000000000032],[0,0],[-0.36999999999989086,-3.294999999999959],[0,0],[0,0],[-0.25,-2.5860000000000127],[0,0],[0,0],[0.6300000000001091,-8.968000000000075],[0,0],[0,0],[0.03999999999996362,-8.30099999999993],[0,0],[-2.1599999999998545,-7.758000000000038],[0,0],[0,0],[-0.6599999999998545,-1.9189999999999827],[-0.03999999999996362,-7.841000000000008],[0,0],[-1.3299999999999272,-1.5849999999999227],[0.25,-1.0850000000000364],[0,0],[0,0],[-1.0399999999999636,-6.882000000000062],[0,0],[0,0],[0.6199999999998909,-1.8350000000000364],[0,0],[0,0],[0.5499999999999545,-6.465000000000032],[0,0],[-0.36999999999989086,-3.2959999999999354],[0,0],[0,0],[-0.25,-2.5860000000000127],[0,0],[0,0],[0.7100000000000364,-8.801000000000045],[0,0],[0,0],[-2.7899999999999636,-23.23300000000006],[-11.669999999999845,9.301000000000045],[0.75,-24.068000000000097],[6,13.26400000000001],[-9.170000000000073,-34.202999999999975],[-15.420000000000073,14.682000000000016],[0,0],[-0.5800000000001546,-10.261000000000081],[0,0],[-1.5,-33.702999999999975],[7.129999999999882,14.766000000000076],[0,0],[0.12999999999988177,-0.66700000000003],[1.5,-12.096000000000004],[2.5,7.466000000000008],[-4.879999999999882,-8.716999999999985],[-2.25,3.0450000000000728],[-0.7100000000000364,-13.38900000000001],[-7.910000000000082,10.762000000000057],[-0.4199999999998454,-1.8350000000000364],[-0.33999999999991815,-4.7970000000000255],[0,0],[-1.1299999999998818,-6.757000000000062],[0,0],[0,0],[0.6299999999998818,-1.8360000000000127],[0,0],[0,0],[0.5399999999999636,-6.466000000000008],[0,0],[-0.37000000000011823,-3.294999999999959],[0,0],[0,0],[-0.25,-2.5860000000000127],[0,0],[0,0],[0.6200000000001182,-8.968000000000075],[0,0],[0,0],[0.03999999999996362,-8.30099999999993],[0,0],[-2.1699999999998454,-7.758000000000038],[0,0],[0,0],[-0.6699999999998454,-1.9180000000000064],[-0.03999999999996362,-7.841000000000008],[0,0],[-1.3299999999999272,-1.5849999999999227],[0.25,-1.0839999999999463],[0,0],[0,0],[-1.0399999999999636,-6.882000000000062],[0,0],[-0.12000000000011823,0.08299999999996999],[0,0],[0.41000000000008185,-9.218000000000075],[0,0],[-0.5,-4.4220000000000255],[0,0],[0,0],[0.12000000000011823,-0.66700000000003],[1.5,-12.09699999999998],[2.5,7.466000000000008],[-4.870000000000118,-8.716999999999985],[-2.25,3.0450000000000728],[-0.7100000000000364,-13.38900000000001],[-3.2899999999999636,4.503999999999905],[-2,4.8799999999999955],[0,0],[-0.5799999999999272,-5.798000000000002],[0,0],[0,0],[-1.8300000000001546,-8.341999999999985],[0,0],[0,0],[0.21000000000003638,-9.593999999999937],[1.8299999999999272,-7.798999999999978],[-2.869999999999891,2.2939999999999827],[-0.12999999999988177,-0.125],[0,0],[-5.4099999999998545,10.969999999999914],[0.75,-24.067000000000007],[0.5899999999999181,1.3350000000000364],[-2.5800000000001546,1.2930000000000064],[0,-5.005999999999972],[0.13000000000010914,-0.125],[0,0],[1.7999999999999545,-8.259000000000015],[-3.9600000000000364,3.7959999999999354],[-1.75,1.6689999999999827],[3.880000000000109,-26.23599999999999],[-12.61999999999989,8.3839999999999],[-3.1299999999998818,-12.513000000000034],[3.459999999999809,7.173999999999978],[-0.290000000000191,2.794999999999959],[-1.709999999999809,-21.313999999999965],[0,0.04200000000003001],[5,5.213999999999942],[-1.9200000000000728,-3.5039999999999054],[0.11999999999989086,-0.6259999999999764],[-0.15999999999985448,0.20799999999997],[-2.4600000000000364,-2.669999999999959],[0,0],[-4.039999999999964,12.76400000000001],[-0.4600000000000364,-2.0439999999999827],[0,0],[0,0],[0.13000000000010914,-0.6680000000000064],[1.5,-12.096000000000004],[2.5,7.466000000000008],[-4.880000000000109,-8.718000000000075],[-7.5900000000001455,10.260999999999967],[0,0],[0,0],[0.42000000000007276,-9.217999999999961],[0,0],[0,0],[-0.5800000000000409,-10.260999999999967],[0,0],[0,0],[0.5400000000000773,-6.464999999999918],[0,0],[-1.1200000000000045,-6.757000000000062],[0,0],[0,0],[0.625,-1.8360000000000127],[0,0],[0,0],[0.5419999999999163,-6.464999999999918],[0,0],[-0.375,-3.294999999999959],[0,0],[0,0],[-0.25,-2.5860000000000127],[0,0],[0,0],[0.625,-8.966999999999985],[0,0],[0,0],[0.04099999999993997,-8.299999999999955],[0,0],[-2.16700000000003,-7.758000000000038],[0,0],[0,0],[-0.66599999999994,-1.9180000000000064],[-0.04200000000003001,-7.8419999999999845],[0,0],[-1.3339999999999463,-1.5849999999999227],[0.25,-1.0839999999999463],[0,0],[0,0],[-1.04200000000003,-6.882000000000062],[0,0],[0,0],[0.625,-1.8350000000000364],[0,0],[0,0],[0.5419999999999163,-6.465000000000032],[0,0],[-0.375,-3.294999999999959],[0,0],[0,0],[-0.25,-2.5860000000000127],[0,0],[0,0],[0.70799999999997,-8.801000000000045],[0,0],[0,0],[-2.7910000000000537,-23.23300000000006],[-11.66700000000003,9.301000000000045],[0.75,-24.067000000000007],[6.000999999999976,13.26400000000001],[-9.16700000000003,-34.202999999999975],[-15.41700000000003,14.682999999999993],[0,0],[-0.58400000000006,-10.261000000000081],[0,0],[-1.5,-33.702],[7.125,14.764999999999986],[0,0],[0.125,-0.66700000000003],[1.5,-12.09699999999998],[2.5009999999999764,7.466000000000008],[-4.875,-8.716999999999985],[-2.25,3.0440000000000964],[-0.70799999999997,-13.38900000000001],[-7.91700000000003,10.760999999999967],[-0.4169999999999163,-1.8350000000000364],[-0.33299999999997,-4.7970000000000255],[0,0],[-1.125,-6.758000000000038],[0,0],[0,0],[0.625,-1.8349999999999227],[0,0],[0,0],[0.54200000000003,-6.464999999999918],[0,0],[-0.375,-3.294999999999959],[0,0],[0,0],[-0.25,-2.586999999999989],[0,0],[0,0],[0.625,-8.967999999999961],[0,0],[0,0],[0.04100000000005366,-8.299999999999955],[0,0],[-2.1660000000000537,-7.7590000000000146],[0,0],[0,0],[-0.6669999999999163,-1.9189999999999827],[-0.04200000000003001,-7.8419999999999845],[0,0],[-1.33299999999997,-1.5849999999999227],[0.25,-1.0839999999999463],[0,0],[0,0],[-1.04200000000003,-6.883000000000038],[0,0],[-0.125,0.08399999999994634],[0,0],[0.4169999999999163,-9.218000000000075],[0,0],[-0.5,-4.421000000000049],[0,0],[0,0],[0.08399999999994634,-1.7520000000000664],[0,0],[0,0],[1.33400000000006,-12.680000000000064],[0,0],[0,0],[0.04200000000003001,-11.302999999999997],[0,0],[-1.41700000000003,-5.088999999999942],[0.83400000000006,-2.2939999999999827],[-0.79200000000003,0.6680000000000064],[-3.4169999999999163,-5.3390000000000555],[0,0],[-1.3330000000000837,2.5860000000000127],[-1.375,-3.1280000000000427],[0,0],[-0.9160000000000537,3.586999999999989],[-0.25,-0.20800000000008367],[-0.6660000000000537,-17.519000000000005],[0.5839999999999463,1.33400000000006],[-2.5830000000000837,1.2930000000000064],[0,-17.184999999999945],[-7.458999999999946,7.0909999999998945],[-0.66700000000003,1.20900000000006],[-1.08299999999997,-1.5430000000000064],[2.70900000000006,-30.49000000000001],[-12.625,8.384000000000015],[-3.125,-12.51400000000001],[3.45900000000006,7.173999999999978],[-0.29099999999994,2.7950000000000728],[-1.70900000000006,-21.314000000000078],[0,0.04099999999993997],[12.250999999999976,12.72199999999998],[0,0],[0.125,-0.6680000000000064],[1.5,-12.096000000000004],[2.5009999999999764,7.4669999999999845],[-4.875,-8.717999999999961],[-2.25,3.044999999999959],[-0.7080000000000837,-13.38900000000001],[-5.25,7.133000000000038],[-0.66700000000003,-4.880999999999972],[0,0],[0,0],[-0.5830000000000837,-10.261000000000081],[0,0],[0,0],[0.54200000000003,-6.465000000000032],[0,0],[-1.125,-6.756999999999948],[0,0],[0,0],[0.625,-1.8350000000000364],[0,0],[0,0],[0.54200000000003,-6.465000000000032],[0,0],[-0.375,-3.2950000000000728],[0,0],[0,0],[-0.25,-2.5860000000000127],[0,0],[0,0],[0.625,-8.967999999999961],[0,0],[0,0],[0.04100000000005366,-8.301000000000045],[0,0],[-2.1660000000000537,-7.758000000000038],[0,0],[0,0],[-0.6669999999999163,-1.9189999999999827],[-0.04200000000003001,-7.842000000000098],[0,0],[-1.33299999999997,-1.5850000000000364],[0.25,-1.0850000000000364],[0,0],[0,0],[-1.04200000000003,-6.881999999999948],[0,0],[0,0],[0.625,-1.8349999999999227],[0,0],[0,0],[0.54200000000003,-6.464999999999918],[0,0],[-0.375,-3.294999999999959],[0,0],[0,0],[-0.25,-2.5860000000000127],[0,0],[0,0],[0.70799999999997,-8.801000000000045],[0,0],[0,0],[-2.79200000000003,-23.232999999999947],[-11.66700000000003,9.302000000000021],[0.75,-24.067999999999984],[6,13.26400000000001],[-9.166999999999916,-34.202999999999975],[-15.41700000000003,14.682000000000016],[0,0],[-0.58299999999997,-10.260999999999967],[0,0],[-1.5,-33.70300000000009],[7.125999999999976,14.765999999999963],[0,0],[0.125,-0.6680000000000064],[1.5,-12.096000000000004],[2.5,7.466000000000008],[-4.875,-8.717999999999961],[-2.25,3.044999999999959],[-0.70799999999997,-13.389999999999986],[-7.91700000000003,10.761999999999944],[-0.4169999999999163,-1.8350000000000364],[-0.33299999999997,-4.796999999999912],[0,0],[-1.125,-6.756999999999948],[0,0],[0,0],[0.625,-1.8350000000000364],[0,0],[0,0],[0.5419999999999732,-6.465000000000032],[0,0],[-0.375,-3.2950000000000728],[0,0],[0,0],[-0.25,-2.5860000000000127],[0,0],[0,0],[0.625,-8.967999999999961],[0,0],[0,0],[0.04199999999997317,-8.301000000000045],[0,0],[-2.166999999999973,-7.758000000000038],[0,0],[0,0],[-0.66700000000003,-1.9189999999999827],[-0.04099999999999682,-7.841000000000008],[0,0],[-1.3330000000000268,-1.5850000000000364],[0.25,-1.0850000000000364],[0,0],[0,0],[-1.04200000000003,-6.881999999999948],[0,0],[-0.125,0.08300000000008367],[0,0],[0.41699999999997317,-9.217999999999961],[0,0],[-0.5,-4.420999999999935],[0,0],[0,0],[0.125,-0.66700000000003],[1.5,-12.096000000000004],[2.5,7.466000000000008],[-4.875,-8.717999999999961],[-2.25,3.044999999999959],[-0.7080000000000268,-13.389999999999986],[-3.291999999999973,4.5049999999999955],[-2,4.8799999999999955],[0,0],[-0.5840000000000032,-5.798000000000002],[0,0],[0,0],[-1.83299999999997,-8.343000000000075],[0,0],[0,0],[0.20799999999997,-9.594000000000051],[1.8340000000000032,-7.800000000000068],[-2.8759999999999764,2.2939999999999827],[-0.125,-0.12599999999997635],[0,0],[-5.416000000000054,10.970000000000027],[0.75,-24.067999999999984],[0.5840000000000032,1.3349999999999227],[-2.583000000000027,1.2930000000000064],[0,-5.0049999999999955],[0.125,-0.125],[0,0],[1.7919999999999732,-8.259000000000015],[-3.958000000000027,3.794999999999959],[-1.75,1.6689999999999827],[3.875,-26.236000000000104],[-12.625,8.384000000000015],[-3.125,-12.513000000000034],[3.458000000000027,7.173999999999978],[-0.29199999999997317,2.7950000000000728],[-1.7080000000000268,-21.314000000000078],[0,0.041999999999916326],[5.001000000000033,5.2140000000000555],[-1.9159999999999968,-3.5030000000000427],[0.125,-0.62600000000009],[-0.16700000000003,0.20899999999994634],[-2.458000000000027,-2.6700000000000728],[0,0],[-4.040999999999997,12.76299999999992],[-0.4590000000000032,-2.0440000000000964],[0,0],[0,0],[0.125,-0.6680000000000064],[1.5,-12.096000000000004],[2.5,7.4669999999999845],[-4.875,-8.717999999999961],[-7.583000000000027,10.261000000000081],[0,0],[0,0],[0.41700000000003,-9.219000000000051],[0,0],[0,0],[-0.5840000000000032,-10.261000000000081],[0,0],[0,0],[0.54200000000003,-6.466000000000008],[0,0],[-1.125,-6.756999999999948],[0,0],[0,0],[0.625,-1.8360000000000127],[0,0],[0,0],[0.5419999999999732,-6.466000000000008],[0,0],[-0.375,-3.2950000000000728],[0,0],[0,0],[-0.25,-2.5860000000000127],[0,0],[0,0],[0.625,-8.967999999999961],[0,0],[0,0],[0.04200000000003001,-8.301000000000045],[0,0],[-2.16700000000003,-7.758000000000038],[0,0],[0,0],[-0.6669999999999732,-1.9180000000000064],[-0.04200000000003001,-7.841000000000008],[0,0],[-1.3340000000000032,-1.5850000000000364],[0.25,-1.0850000000000364],[0,0],[0,0],[-1.0409999999999968,-6.881999999999948],[0,0],[0,0],[0.625,-1.8349999999999227],[0,0],[0,0],[0.5409999999999968,-6.464999999999918],[0,0],[-0.375,-3.296000000000049],[0,0],[0,0],[-0.25,-2.5860000000000127],[0,0],[0,0],[0.7079999999999984,-8.801000000000045],[0,0],[0,0],[-2.790999999999997,-23.232999999999947],[-11.667000000000002,9.30099999999993],[0.75,-24.067000000000007],[6,13.26400000000001],[-9.167000000000002,-34.202999999999975],[-15.418000000000006,14.682000000000016],[0,0],[-0.5840000000000032,-10.260999999999967],[0,0],[-1.5,-33.70300000000009],[7.125,14.765999999999963],[0,0],[0.125,-0.66700000000003],[1.5,-12.096000000000004],[2.5,7.466000000000008],[-4.875,-8.716999999999985],[-2.25,3.044999999999959],[-0.7079999999999984,-13.38900000000001],[-7.917000000000002,10.761999999999944],[-0.4159999999999968,-1.8350000000000364],[-0.3329999999999984,-4.796999999999912],[0,0],[-1.125,-6.756999999999948],[0,0],[0,0],[0.625,-1.8360000000000127],[0,0],[0,0],[0.5420000000000016,-6.465000000000032],[0,0],[-0.375,-3.2950000000000728],[0,0],[0,0],[-0.25,-2.5860000000000127],[0,0],[0,0],[0.625,-8.966999999999985],[0,0],[0,0],[0.04099999999999682,-8.301000000000045],[0,0],[-2.1670000000000016,-7.758000000000038],[0,0],[0,0],[-0.6659999999999968,-1.9180000000000064],[-0.04200000000000159,-7.841000000000008],[0,0],[-1.3329999999999984,-1.5850000000000364],[0.25,-1.08400000000006],[0,0],[0,0],[-1.0420000000000016,-6.881999999999948],[0,0],[-0.125,0.08300000000008367],[0,0],[0.41670000000000584,-9.217999999999961],[0,0],[-0.5,-4.421999999999912],[0,0],[0,0],[0.08330000000000837,-1.7519999999999527],[0,0],[0,0],[1.3333999999999975,-12.67999999999995],[0,0],[0,0],[0.041600000000002524,-11.302999999999997],[0,0],[-1.4167000000000058,-5.0890000000000555],[0.8334000000000046,-2.2939999999999827],[-0.7916000000000025,0.6680000000000064],[-3.416799999999995,-5.3390000000000555],[0,0],[-1.3334000000000046,2.5860000000000127],[-1.375,-3.127999999999929],[0,0],[-0.9166999999999987,3.586999999999989],[-0.25,-0.20799999999997],[-0.6667000000000058,-17.519000000000005],[0.5833000000000013,1.3349999999999227],[-2.5833999999999975,1.2930000000000064],[0,-17.18500000000006],[-7.458599999999997,7.091000000000008],[-0.6667000000000058,1.2089999999999463],[-1.0833999999999975,-1.5439999999999827],[2.708400000000001,-30.490999999999985],[-12.625399999999999,8.384000000000015],[-3.1250999999999998,-12.51400000000001],[3.4584999999999972,7.1749999999999545],[-0.2917000000000023,2.7939999999999827],[-1.7083999999999975,-21.313999999999965],[0,0.04200000000003001],[12.250340000000001,12.72199999999998],[0,0],[0.125,-0.6669999999999163],[1.5001000000000015,-12.096000000000004],[2.5000999999999998,7.4669999999999845],[-4.8751299999999995,-8.717999999999961],[-2.250069999999999,3.044999999999959],[-0.7083499999999998,-13.38900000000001],[-7.9169,10.761000000000081],[-0.45835000000000004,-2.0439999999999827],[0,0],[0,0],[0,0],[0,0],[0,0],[0,0],[0,0]]}}},{"ty":"sh","ks":{"a":0,"k":{"c":true,"v":[[1133.78,785.375],[1134.83,799.14],[1133.24,794.385]],"i":[[-0.2899999999999636,2.8780000000000427],[0,0],[0.6299999999998818,1.3759999999999764]],"o":[[0.17000000000007276,7.633000000000038],[-0.4199999999998454,-1.8350000000000364],[0.08999999999991815,-3.044999999999959]]}}},{"ty":"sh","ks":{"a":0,"k":{"c":true,"v":[[435.305,785.375],[436.346,799.14],[434.763,794.385]],"i":[[-0.3340000000000032,2.8780000000000427],[0,0],[0.625,1.3759999999999764]],"o":[[0.16599999999999682,7.633000000000038],[-0.4159999999999968,-1.8350000000000364],[0.04200000000003001,-3.044999999999959]]}}},{"ty":"sh","ks":{"a":0,"k":{"c":true,"v":[[1332.87,793.134],[1337.37,803.019],[1336.87,806.815],[1333.08,806.815]],"i":[[-1.0399999999999636,4.545999999999935],[-1.459999999999809,-5.380999999999972],[0.21000000000003638,-1.2930000000000064],[0,0]],"o":[[0.5,0.7089999999999463],[-0.11999999999989086,1.2100000000000364],[0,0],[-0.7899999999999636,-4.088000000000079]]}}},{"ty":"sh","ks":{"a":0,"k":{"c":true,"v":[[1172.08,793.134],[1176.58,803.019],[1176.08,806.815],[1172.28,806.815]],"i":[[-1.0499999999999545,4.545999999999935],[-1.4600000000000364,-5.380999999999972],[0.21000000000003638,-1.2930000000000064],[0,0]],"o":[[0.5,0.7089999999999463],[-0.12999999999988177,1.2100000000000364],[0,0],[-0.7899999999999636,-4.088000000000079]]}}},{"ty":"sh","ks":{"a":0,"k":{"c":true,"v":[[1104.95,779.619],[1107.82,806.856],[1103.62,806.856]],"i":[[-1.5399999999999636,7.216000000000008],[1.3400000000001455,-13.17999999999995],[0,0]],"o":[[2.0399999999999636,5.130999999999972],[0,0],[-1.25,-10.510999999999967]]}}},{"ty":"sh","ks":{"a":0,"k":{"c":true,"v":[[1092.28,775.073],[1089.07,804.437],[1086.62,792.842]],"i":[[-0.5399999999999636,1.2930000000000064],[0,0],[0.540000000000191,3.586999999999989]],"o":[[3,12.97199999999998],[-1.1199999999998909,-4.129000000000019],[1.9500000000000455,-8.927000000000021]]}}},{"ty":"sh","ks":{"a":0,"k":{"c":true,"v":[[1076.45,789.505],[1083.53,771.903],[1082.2,785.292],[1076.37,801.851]],"i":[[-0.21000000000003638,3.961999999999989],[-3.2100000000000364,4.9220000000000255],[0.03999999999996362,-4.3799999999999955],[0,0]],"o":[[1.5799999999999272,-6.423999999999978],[-0.9100000000000819,4.420999999999935],[-4.460000000000036,7.8419999999999845],[-0.16999999999984539,-4.254000000000019]]}}},{"ty":"sh","ks":{"a":0,"k":{"c":true,"v":[[1051.82,769.525],[1059.86,806.856],[1055.95,806.856]],"i":[[-0.5799999999999272,8.718000000000075],[-0.9499999999998181,-15.265999999999963],[0,0]],"o":[[3.5,9.259999999999991],[0,0],[-4.5,-14.849000000000046]]}}},{"ty":"sh","ks":{"a":0,"k":{"c":true,"v":[[962.904,793.134],[967.404,803.019],[966.904,806.815],[963.112,806.815]],"i":[[-1.0839999999999463,4.545999999999935],[-1.4589999999999463,-5.380999999999972],[0.20799999999997,-1.2930000000000064],[0,0]],"o":[[0.5,0.7089999999999463],[-0.125,1.2100000000000364],[0,0],[-0.7919999999999163,-4.088000000000079]]}}},{"ty":"sh","ks":{"a":0,"k":{"c":true,"v":[[802.107,793.134],[806.607,803.019],[806.107,806.815],[802.316,806.815]],"i":[[-1.08299999999997,4.545999999999935],[-1.45799999999997,-5.380999999999972],[0.20900000000006003,-1.2930000000000064],[0,0]],"o":[[0.5,0.7089999999999463],[-0.125,1.2100000000000364],[0,0],[-0.79200000000003,-4.088000000000079]]}}},{"ty":"sh","ks":{"a":0,"k":{"c":true,"v":[[746.981,798.181],[747.314,798.89],[746.939,804.145]],"i":[[0.04100000000005366,1.8769999999999527],[-0.08299999999996999,-0.25099999999997635],[0.04200000000003001,-1.0839999999999463]],"o":[[0.125,0.20799999999997],[-0.25,2.3360000000000127],[0.08300000000008367,-2.1269999999999527]]}}},{"ty":"sh","ks":{"a":0,"k":{"c":true,"v":[[743.397,774.989],[740.23,804.437],[737.23,788.587]],"i":[[-0.625,0.9180000000000064],[0,0],[0.5,4.7549999999999955]],"o":[[3.0419999999999163,12.97199999999998],[-1.58299999999997,-5.8390000000000555],[2,-7.423999999999978]]}}},{"ty":"sh","ks":{"a":0,"k":{"c":true,"v":[[727.855,785.626],[730.147,792.341],[727.563,801.851]],"i":[[-0.41700000000003,5.1299999999999955],[-0.875,-3.044999999999959],[0,0]],"o":[[0.54200000000003,1.3759999999999764],[-1.91700000000003,5.255999999999972],[-0.29099999999994,-5.6720000000000255]]}}},{"ty":"sh","ks":{"a":0,"k":{"c":true,"v":[[754.481,804.27],[754.356,802.685],[754.231,799.599],[755.814,781.121],[760.064,806.898],[755.773,806.898]],"i":[[0.5,0.8350000000000364],[0.04100000000005366,0.50100000000009],[0.04100000000005366,1.0430000000000064],[-1.04099999999994,5.2549999999999955],[-0.625,-9.634999999999991],[0,0]],"o":[[-0.04200000000003001,-0.54200000000003],[-0.04200000000003001,-1.0419999999999163],[-0.16700000000003,-6.924000000000092],[2.04200000000003,7.423999999999978],[0,0],[-0.45900000000006,-0.91700000000003]]}}},{"ty":"sh","ks":{"a":0,"k":{"c":true,"v":[[700.313,799.14],[700.146,798.598],[700.146,797.763]],"i":[[0,0],[0.04200000000003001,0.20800000000008367],[0,0.2919999999999163]],"o":[[-0.04200000000003001,-0.20899999999994634],[0,-0.2919999999999163],[0.08300000000008367,0.8759999999999764]]}}},{"ty":"sh","ks":{"a":0,"k":{"c":true,"v":[[634.394,793.134],[638.894,803.019],[638.394,806.815],[634.602,806.815]],"i":[[-1.08299999999997,4.545999999999935],[-1.45799999999997,-5.380999999999972],[0.20799999999997,-1.2930000000000064],[0,0]],"o":[[0.5,0.7089999999999463],[-0.125,1.2100000000000364],[0,0],[-0.79099999999994,-4.088000000000079]]}}},{"ty":"sh","ks":{"a":0,"k":{"c":true,"v":[[473.597,793.134],[478.098,803.019],[477.598,806.815],[473.806,806.815]],"i":[[-1.08299999999997,4.545999999999935],[-1.4590000000000032,-5.380999999999972],[0.20799999999997,-1.2930000000000064],[0,0]],"o":[[0.5010000000000332,0.7089999999999463],[-0.125,1.2100000000000364],[0,0],[-0.7919999999999732,-4.088000000000079]]}}},{"ty":"sh","ks":{"a":0,"k":{"c":true,"v":[[406.429,779.619],[409.304,806.856],[405.095,806.856]],"i":[[-1.5419999999999732,7.216000000000008],[1.3330000000000268,-13.17999999999995],[0,0]],"o":[[2.04200000000003,5.130999999999972],[0,0],[-1.2080000000000268,-10.510999999999967]]}}},{"ty":"sh","ks":{"a":0,"k":{"c":true,"v":[[393.762,775.073],[390.553,804.437],[388.095,792.842]],"i":[[-0.5419999999999732,1.2930000000000064],[0,0],[0.5419999999999732,3.586999999999989]],"o":[[3,12.97199999999998],[-1.125,-4.129000000000019],[1.95799999999997,-8.927000000000021]]}}},{"ty":"sh","ks":{"a":0,"k":{"c":true,"v":[[377.928,789.505],[385.012,771.903],[383.678,785.292],[377.845,801.851]],"i":[[-0.20799999999997,3.961999999999989],[-3.209000000000003,4.9220000000000255],[0.04200000000003001,-4.3799999999999955],[0,0]],"o":[[1.5830000000000268,-6.423999999999978],[-0.9169999999999732,4.420999999999935],[-4.45799999999997,7.8419999999999845],[-0.16700000000003,-4.254000000000019]]}}},{"ty":"sh","ks":{"a":0,"k":{"c":true,"v":[[353.302,769.525],[361.344,806.856],[357.427,806.856]],"i":[[-0.5830000000000268,8.718000000000075],[-0.95799999999997,-15.265999999999963],[0,0]],"o":[[3.5,9.259999999999991],[0,0],[-4.458000000000027,-14.849000000000046]]}}},{"ty":"sh","ks":{"a":0,"k":{"c":true,"v":[[264.383,793.134],[268.883,803.019],[268.383,806.815],[264.591,806.815]],"i":[[-1.0419999999999732,4.545999999999935],[-1.45799999999997,-5.380999999999972],[0.20800000000002683,-1.2930000000000064],[0,0]],"o":[[0.5,0.7089999999999463],[-0.125,1.2100000000000364],[0,0],[-0.7909999999999968,-4.088000000000079]]}}},{"ty":"sh","ks":{"a":0,"k":{"c":true,"v":[[103.586,793.134],[108.087,803.019],[107.587,806.815],[103.795,806.815]],"i":[[-1.0409999999999968,